tree
version=v4
num_class=1
num_tree_per_iteration=1
label_index=0
max_feature_idx=14
objective=binary sigmoid:1
feature_names=Column_0 Column_1 Column_2 Column_3 Column_4 Column_5 Column_6 Column_7 Column_8 Column_9 Column_10 Column_11 Column_12 Column_13 Column_14
monotone_constraints=1 -1 -1 -1 1 1 1 -1 -1 -1 1 -1 -1 -1 1
feature_infos=[0.033424081954927527:0.83286065095354911] [-0.063062648873271093:0.82042115247907499] [0:12.381639959303195] [-64.333319588366649:79.760605749082544] [1.1088971663785212:12.093797982242933] [0:0.18439716312056736] [0:616] [-2033717.915:12705966.074999999] [0:100] [4:103] [0:0.59685012997727505] [-0.36867710863608882:8.6848314035937655] [6:82] [13:68] [0.088444444444444437:0.73499999999999999]
tree_sizes=1048 1601 1486 1173 1493 1176 1284 1288 1501 864 1186 1088 1182 1084 1083 1188 984 1283 1194 982 1297 1184 1078 987 983 1088 1297 1077 879 1082 982 875 984 986 887 1188 1087 979 890 986 979 982 990 1195 1087 1090 779 988 883 779 988 1078 1085 887 1099 886 877 883 990 889 779 988 891 882 786 992 892 975 982 783 1204 889 987 672 893 897 995 788 782 894 787 790 783 990 788 897 784 787 789 892 785 791 898 793 780 684 1001 889 994 994 993 792 684 794 688 793 795 795 793 802 792 794 685 796 795 799 687 798 795 800 803 800 688 791 791 907 797 903 799 798 904 691 690 802 798 901 801 908 801 803 800 802 580 802 694 803 792 799 913 902 797 797 798 910 909 797 693 795 801 901 805 798 799 798 802 799 800 900 797 799 798 803 800 798 799 799 796 912 800 800 801 800 581 581 799 802 801 797 798 798 1016 797 799 587 795 588 584 798 585 804 588 804 588 699 588 698 584 698 587 705 587 704 588 706 588 705 587 707 590 707 589 702 588 705 590 705 589 697 586 706 588 704 370 707 588 703 369 703 369 704 370 706 369 702 370 705 369 707 370 485 369 487 368 484 370 486 369 486 370 486 368 487 369 486 368 487 370 485 370 486 369 487 479 486 370 485 370 487 370 486 370 485 370 487 370 486 369 486 369 486 369 373 370 370 369 371 370 370 370 373

Tree=0
num_leaves=9
num_cat=0
split_feature=6 12 5 12 3 12 7 0
split_gain=47.5574 21.1037 19.2622 11.5199 10.5763 6.57996 3.96159 3.68382
threshold=9.5000000000000018 32.500000000000007 0.062397540983606566 22.500000000000004 -0.3153604808113572 31.500000000000004 422062.13750000007 0.37679723931686598
decision_type=2 2 2 2 10 2 2 2
left_child=2 4 3 -1 -2 -4 -3 -5
right_child=1 6 5 7 -6 -7 -8 -9
leaf_value=-1.3799333656868102 -1.2291358138060204 -1.3510363515443937 -1.3481461016956457 -1.4423093636258764 -1.3319607025426567 -1.3974163608819508 -1.3974163608819508 -1.3974163608819508
leaf_weight=6.5247732251882544 5.2516467422246933 8.9118853807449288 10.503293484449388 45.673412576317787 4.7742243111133593 19.09689724445343 5.7290691733360299 4.9333651214838019
leaf_count=41 33 56 66 287 30 120 36 31
internal_value=-1.39525 -1.33399 -1.41267 -1.42963 -1.2781 -1.37993 -1.37226 -1.43788
internal_weight=111.399 24.6668 86.7317 57.1316 10.0259 29.6002 14.641 50.6068
internal_count=700 155 545 359 63 186 92 318
is_linear=0
shrinkage=1


Tree=1
num_leaves=14
num_cat=0
split_feature=2 5 12 8 6 11 9 1 5 3 3 0 7
split_gain=42.3964 19.1441 19.7173 11.481 7.79895 4.39357 2.05364 1.99743 1.93131 1.59546 0.285669 0.227235 0.154766
threshold=2.7867702420147675 0.063966175668303329 30.500000000000004 64.583333333333343 14.500000000000002 2.3714282258779353 18.500000000000004 0.39050056466966288 0.063966175668303329 -2.5556988680572483 15.643271271887237 0.36915701483446289 1207803.9200000002
decision_type=2 2 2 2 2 10 2 2 2 10 10 2 2
left_child=1 3 4 6 -3 8 -1 10 -2 -4 -7 -5 -9
right_child=5 2 9 11 -6 7 -8 12 -10 -11 -12 -13 -14
leaf_value=0.028626426754798751 -0.028671755983639521 0.070231786476579794 0.051082845156397265 -0.028671755983639521 0.15555543534120156 -0.028671755983639521 -0.0048944166671645896 -0.051379901499733142 0.0069983460154307998 0.028626426754798751 -0.041146663942159094 -0.012081801765909561 -0.062031154634508839
leaf_weight=5.3266249448061007 22.289598807692528 5.2518683820962924 7.909435093402867 6.7699482291936857 5.4650349020957947 4.722752049565317 5.224694088101387 4.690119460225108 10.773531943559645 10.72606752812862 4.8156131207942963 4.9073116928339005 12.500034615397452
leaf_count=33 143 32 49 43 32 30 33 30 67 67 31 30 80
internal_value=-1.87877e-05 0.0331952 0.0597032 -0.00180815 0.113742 -0.0286718 0.0286264 -0.0489435 -0.0286718 0.0286264 -0.0305942 -0.0286718 -0.0591251
internal_weight=111.373 51.581 29.3524 22.2286 10.7169 59.7916 10.5513 26.7285 33.0631 18.6355 9.53837 11.6773 17.1902
internal_count=700 319 180 139 64 381 66 171 210 116 61 73 110
is_linear=0
shrinkage=0.05


Tree=2
num_leaves=13
num_cat=0
split_feature=2 5 12 8 6 12 14 5 1 8 9 14
split_gain=37.8399 15.974 16.1514 10.95 5.84716 4.39182 2.92116 2.21559 1.53472 1.09752 0.537866 0.025041
threshold=2.7867702420147675 0.063966175668303329 30.500000000000004 70.833333333333343 14.500000000000002 42.500000000000007 0.32150000000000006 0.068532289628180046 0.33264134196256162 88.194444444444457 53.500000000000007 0.22083333333333335
decision_type=2 2 2 2 2 2 2 2 2 2 2 2
left_child=1 3 4 6 -3 7 -1 9 -4 -2 11 -7
right_child=5 2 8 -5 -6 10 -8 -9 -10 -11 -12 -13
leaf_value=-0.012575310958600292 -0.027635704414895004 0.064013279144899363 0.046632702312792373 -0.027635704414895004 0.13566960930201968 -0.05524166997884325 0.026100014959624759 0.013773264626577832 0.026100014959624759 -0.047370488356577339 -0.061423417128764701 -0.047370488356577339
leaf_weight=4.9891716390848169 14.732995450496679 5.4680234938859957 9.1007646620273608 9.1421233564615232 5.9391346871852875 7.9216308146715226 8.0198502391576749 9.1624701321125013 9.9595536440610868 6.534449338912963 6.8089530020952216 13.461031407117842
leaf_count=31 96 32 55 58 32 52 50 57 61 43 45 88
internal_value=-7.34134e-06 0.030773 0.0542631 -0.00153627 0.101321 -0.0276357 0.0261 -0.0276357 0.0261 -0.0276357 -0.0473705 -0.0473705
internal_weight=111.24 52.6186 30.4675 22.1511 11.4072 58.6215 13.009 30.4299 19.0603 21.2674 28.1916 21.3827
internal_count=700 319 180 139 64 381 81 196 116 139 185 140
is_linear=0
shrinkage=0.05


Tree=3
num_leaves=10
num_cat=0
split_feature=6 5 12 13 3 12 9 14 8
split_gain=33.6668 15.1893 12.5561 10.726 6.7964 3.2564 3.11254 2.40008 1.95602
threshold=9.5000000000000018 0.060373756074982653 32.500000000000007 31.500000000000004 -0.3153604808113572 31.500000000000004 31.500000000000004 0.42579166666666673 76.3888888888889
decision_type=2 2 2 2 10 2 2 2 2
left_child=1 3 4 6 -2 -3 -1 -4 -5
right_child=2 5 7 8 -6 -7 -8 -9 -10
leaf_value=0.012143950664636504 0.1231713568760186 0.039144062001360037 0.012143950664636504 -0.032293891050122203 0.046526630942996861 0.012143950664636504 -0.029284316858987549 0.046526630942996861 -0.053610394338878077
leaf_weight=5.0022474378347379 6.2897614985704422 11.167271658778199 9.7743188589811272 22.449567005038261 5.3548070490360278 20.113165259361267 4.6185587048530579 5.4318319410085687 20.670618295669556
leaf_count=32 33 66 59 150 30 126 30 33 141
internal_value=0.000114851 -0.0154607 0.0488538 -0.0318328 0.0879259 0.012144 0.012144 0.0189332 -0.0425124
internal_weight=110.872 84.0214 26.8507 52.741 11.6446 31.2804 9.62081 15.2062 43.1202
internal_count=700 545 155 353 63 192 62 92 291
is_linear=0
shrinkage=0.05


Tree=4
num_leaves=13
num_cat=0
split_feature=2 5 12 8 11 6 8 1 14 1 3 0
split_gain=30.971 12.145 11.9596 10.0725 4.28435 3.90424 2.62236 2.08511 1.5514 1.36258 0.255634 0.170804
threshold=2.7867702420147675 0.063966175668303329 30.500000000000004 70.833333333333343 2.3714282258779353 14.500000000000002 70.833333333333343 0.39050056466966288 0.32150000000000006 0.33264134196256162 15.643271271887237 0.21316158259082116
decision_type=2 2 2 2 10 2 2 2 2 2 10 2
left_child=1 3 5 8 6 -3 -2 10 -1 -4 -6 -9
right_child=4 2 9 -5 7 -7 -8 11 -10 -11 -12 -13
leaf_value=0.0059819844609135938 0.0059819844609135938 0.055247881960861771 0.041445073865883281 -0.025856758077223069 -0.025856758077223069 0.11151799460038819 -0.025856758077223069 -0.060680148350417566 0.022473827246946895 0.022473827246946895 -0.03802317592940576 -0.049027727123980874
leaf_weight=4.9667054116725931 14.712844699621202 5.7930078208446485 9.4647638797760028 8.9786391109228116 4.4861611276865023 6.5886191725730896 17.074673563241959 11.554634228348727 8.1560260653495771 10.223277226090429 4.4447079300880432 4.3209637999534616
leaf_count=31 95 32 55 58 30 32 115 80 50 61 31 30
internal_value=1.01711e-05 0.0270341 0.0466879 -0.00148421 -0.0258568 0.0851908 -0.0258568 -0.046636 0.0224738 0.0224738 -0.0273087 -0.0575086
internal_weight=110.765 54.171 32.0697 22.1014 56.594 12.3816 31.7875 24.8065 13.1227 19.688 8.93087 15.8756
internal_count=700 319 180 139 381 64 210 171 81 116 61 110
is_linear=0
shrinkage=0.05


Tree=5
num_leaves=10
num_cat=0
split_feature=2 5 12 8 9 12 1 13 9
split_gain=27.6996 10.8984 10.631 7.67694 4.48751 4.24275 1.04625 0.88035 0.374552
threshold=2.7867702420147675 0.028562271773754956 29.500000000000004 76.3888888888889 12.500000000000002 42.500000000000007 0.42076404139935669 47.500000000000007 24.500000000000004
decision_type=2 2 2 2 2 2 2 2 2
left_child=1 -1 4 -4 -3 -2 7 -7 -8
right_child=5 2 3 -5 -6 6 8 -9 -10
leaf_value=-0.02494682655827794 -0.02494682655827794 0.097897531733185966 0.029499832642968394 -0.02494682655827794 0.0454141884677269 -0.02494682655827794 -0.049971392433532637 -0.049971392433532637 -0.060309527141417622
leaf_weight=6.2588119655847541 29.411296024918556 6.3148870766162899 23.565550208091739 7.3560167402029029 11.471850633621214 6.3621190935373324 4.2895304709672901 4.8194850534200668 10.714198008179663
leaf_count=40 196 33 140 45 61 45 30 34 76
internal_value=-6.2418e-05 0.025107 0.0332484 0.0155321 0.0640475 -0.0249468 -0.0450732 -0.0334959 -0.0537012
internal_weight=110.564 54.9671 48.7083 30.9216 17.7867 55.5966 26.1853 11.1816 15.0037
internal_count=700 319 279 185 94 381 185 79 106
is_linear=0
shrinkage=0.05


Tree=6
num_leaves=11
num_cat=0
split_feature=6 12 5 12 8 3 0 5 8 14
split_gain=24.8823 12.6006 8.55611 8.51409 6.30239 5.15073 2.89218 2.23815 1.91248 1.439
threshold=9.5000000000000018 29.500000000000004 0.060373756074982653 32.500000000000007 70.833333333333343 -0.3153604808113572 0.32389418910603646 0.053787550026520088 76.3888888888889 0.42579166666666673
decision_type=2 2 2 2 2 10 2 2 2 2
left_child=1 6 8 5 -4 -2 7 -1 -3 -5
right_child=3 2 4 9 -6 -7 -8 -9 -10 -11
leaf_value=-0.021084398603188587 0.099880329035874529 -0.031161350176067883 0.015813261485777778 0.015813261485777778 -0.031161350176067883 0.035908750763099184 0.035908750763099184 0.020927880119014974 -0.051383826898304744 0.035908750763099184
leaf_weight=6.2319415956735629 6.9494735300540924 20.567150220274925 11.942454203963282 9.9862520694732613 9.6741117089986783 5.7500167191028613 8.4727701097726804 6.4523774981498718 18.31485903263092 5.6623923778533944
leaf_count=42 33 144 73 59 62 30 50 38 136 33
internal_value=0.000139017 -0.0138723 -0.0254876 0.0404982 -0.000269242 0.0709156 0.0193414 0.0158133 -0.0395078 0.0158133
internal_weight=110.004 81.6557 60.4986 28.3481 21.6166 12.6995 21.1571 12.6843 38.882 15.6486
internal_count=700 545 415 155 135 63 130 80 280 92
is_linear=0
shrinkage=0.05


Tree=7
num_leaves=11
num_cat=0
split_feature=2 11 5 12 12 6 12 3 11 1
split_gain=22.5049 10.0549 8.34641 8.1486 4.99938 2.79144 2.3303 2.12989 3.22635 0.648663
threshold=2.7867702420147675 2.0761966133453766 0.063966175668303329 30.500000000000004 41.500000000000007 14.500000000000002 34.500000000000007 -2.5556988680572483 2.3714282258779353 0.39050056466966288
decision_type=2 8 2 2 2 2 2 10 10 2
left_child=2 4 -1 5 -2 -4 8 -5 -3 -8
right_child=1 6 3 7 -6 -7 9 -9 -10 -11
leaf_value=0.0070306871513284869 0.0070306871513284869 0.0070306871513284869 0.044459463426073896 0.037527433816615073 -0.033775151892150787 0.090187041445021043 -0.043901432827839322 0.0070306871513284869 -0.043901432827839322 -0.055689432074433734
leaf_weight=22.312504291534424 10.807445272803308 4.8014314174652082 6.2223235815763456 8.7504169642925262 7.5060507655143729 7.1983476877212524 10.818339392542841 11.589995935559273 5.9978587627410889 13.587900444865225
leaf_count=139 71 32 32 49 53 32 80 67 42 103
internal_value=0.000174366 -0.0230179 0.02231 0.038745 0.00703069 0.068986 -0.0386488 0.0187919 -0.0193103 -0.0472057
internal_weight=109.593 53.519 56.0736 33.7611 18.3135 13.4207 35.2055 20.3404 10.7993 24.4062
internal_count=700 381 319 180 124 64 257 116 74 183
is_linear=0
shrinkage=0.05


Tree=8
num_leaves=13
num_cat=0
split_feature=5 12 8 11 6 8 7 1 12 11 1 1
split_gain=20.779 9.87897 8.17364 7.86963 5.58604 4.86099 3.82321 3.70958 2.81756 1.54124 0.375465 1.45425e-05
threshold=0.060373756074982653 32.500000000000007 85.416666666666686 2.0761966133453766 9.5000000000000018 85.416666666666686 1009885.5725000001 0.35778315592694804 31.500000000000004 1.8212506824520864 0.42076404139935669 0.50771117726904247
decision_type=2 2 2 8 2 2 2 2 2 10 2 2
left_child=2 4 3 8 9 7 -5 -3 -1 -2 -4 -12
right_child=1 5 10 6 -6 -7 -8 -9 -10 -11 11 -13
leaf_value=0.026611408030370362 0.049601446481478143 0.026611408030370362 -0.048406248274181884 0.0030239214683424843 0.077704592496897554 -0.032738978802119692 -0.048406248274181884 0.0045880744872904451 0.0030239214683424843 0.026611408030370362 -0.058782823779848607 -0.058912806529884176
leaf_weight=9.0064856410026568 7.2900731116533297 10.898629158735284 9.6093871369957942 4.7005144953727749 9.3746939748525602 6.7980341613292685 11.484210416674612 13.120950400829313 13.057876810431479 5.1692715883255005 4.4063543081283552 4.2056487053632736
leaf_count=54 39 62 71 33 42 44 87 81 88 31 35 33
internal_value=0.000222144 0.0228181 -0.0208458 -0.00771629 0.0485489 0.00458807 -0.0350779 0.0151524 0.00458807 0.0266114 -0.0484062 -0.0588463
internal_weight=109.122 52.6517 56.4705 38.2491 21.834 30.8176 16.1847 24.0196 22.0644 12.4593 18.2214 8.612
internal_count=700 299 401 262 112 187 120 143 142 70 139 68
is_linear=0
shrinkage=0.05


Tree=9
num_leaves=7
num_cat=0
split_feature=5 7 12 4 0 1
split_gain=18.6251 8.79915 8.19236 5.51967 2.40969 0.767085
threshold=0.060373756074982653 328098.565 22.500000000000004 4.5233593257037681 0.37679723931686598 0.28775325991980599
decision_type=2 2 2 2 2 2
left_child=1 -1 -3 5 -4 -2
right_child=3 2 4 -5 -6 -7
leaf_value=0.021301744259103098 0.043755374859458934 0.021301744259103098 -0.0403766034832179 0.057424948187878966 -0.004081885220464699 0.021301744259103098
leaf_weight=8.0592638254165632 10.598017603158949 5.4182811975479117 36.903387807309628 10.575005441904066 5.2200047448277465 32.002698361873627
leaf_count=48 55 35 283 55 35 189
internal_value=0.00014565 -0.0200877 -0.028359 0.0213017 -0.0358789 0.0213017
internal_weight=108.777 55.6009 47.5417 53.1757 42.1234 42.6007
internal_count=700 401 353 299 318 244
is_linear=0
shrinkage=0.05


Tree=10
num_leaves=10
num_cat=0
split_feature=6 12 8 5 12 3 9 1 14
split_gain=16.846 9.58518 6.70015 6.23239 5.67967 4.12116 2.37045 1.28042 1.32523
threshold=9.5000000000000018 29.500000000000004 76.3888888888889 0.046756298846805495 32.500000000000007 -0.3153604808113572 29.500000000000004 0.4147859177781949 0.42579166666666673
decision_type=2 2 2 2 2 10 2 2 2
left_child=1 6 3 -3 5 -2 -1 -4 -6
right_child=4 2 7 -5 8 -7 -8 -9 -10
leaf_value=0.025336172911219923 0.080627251189749657 -0.033006068318276398 -0.033006068318276398 0.0099289895380199611 0.0099289895380199611 0.025336172911219923 0.0099289895380199611 -0.054865439644681768 0.025336172911219923
leaf_weight=12.393931046128275 7.4780429899692535 15.092565812170504 10.543830685317518 19.210697129368782 10.320718735456468 6.1350413262844103 9.3188085258007032 12.369471520185469 5.8908433616161338
leaf_count=71 33 114 81 121 59 30 59 99 33
internal_value=-0.000114957 -0.0122116 -0.0229452 -0.00896135 0.0318981 0.0557091 0.0160733 -0.0438803 0.0119036
internal_weight=108.754 78.9293 57.2166 34.3033 29.8246 13.6131 21.7127 22.9133 16.2116
internal_count=700 545 415 235 155 63 130 180 92
is_linear=0
shrinkage=0.05


Tree=11
num_leaves=9
num_cat=0
split_feature=11 8 12 2 5 0 6 11
split_gain=15.7234 10.46 8.45628 5.42753 4.42207 3.49574 2.1269 1.49941
threshold=2.0761966133453766 35.416666666666671 29.500000000000004 2.7867702420147675 0.063966175668303329 0.30851494392811635 9.5000000000000018 2.1988649754737786
decision_type=8 2 2 2 2 2 2 10
left_child=1 -1 4 -2 -3 7 -4 -5
right_child=3 2 6 5 -6 -7 -8 -9
leaf_value=0.062817695595381695 -0.0071542813114496831 0.0048783399945089732 -0.0071542813114496831 -0.018992102623417804 0.051703092128440299 -0.0071542813114496831 0.0048783399945089732 -0.049508491516045409
leaf_weight=9.4434223026037198 5.6105947643518439 8.6492013931274432 24.982225514948368 4.9417098313570085 12.090285509824751 5.8675978332757941 15.097236037254332 21.705016002058983
leaf_count=50 33 51 169 38 56 43 84 176
internal_value=-0.000168933 0.0138591 0.00625725 -0.0260219 0.0321753 -0.036046 -0.00715428 -0.0438491
internal_weight=108.387 70.2624 60.8189 38.1249 20.7395 32.5143 40.0795 26.6467
internal_count=700 410 360 290 107 257 253 214
is_linear=0
shrinkage=0.05


Tree=12
num_leaves=10
num_cat=0
split_feature=5 9 2 4 14 2 1 8 7
split_gain=14.2143 7.38846 8.70185 4.56842 2.89628 1.8016 1.69617 1.59367 0.395114
threshold=0.060373756074982653 24.500000000000004 4.044064949587832 4.5233593257037681 0.31704166666666672 4.3772020722359262 0.29013760621345963 76.3888888888889 1682575.4900000002
decision_type=2 2 2 2 2 2 2 2 2
left_child=1 2 4 5 -1 6 -2 -3 -9
right_child=3 7 -4 -5 -6 -7 -8 8 -10
leaf_value=-0.022115414486652191 0.038469985319272058 -0.032792195957304961 -0.032792195957304961 0.050136616409049511 0.017878470206322085 -0.017946345190255297 0.017878470206322085 -0.041531172966241189 -0.057495508078654139
leaf_weight=5.1129312738776216 11.367885410785673 17.849571518599987 4.8370237648487082 10.975568503141401 10.149822175502775 5.7616216838359824 26.236674785614014 8.5717301741242391 7.0746798738837233
leaf_count=36 57 128 41 55 64 39 148 69 63
internal_value=-0.000141093 -0.0184115 0.0055538 0.0178785 0.0178785 0.0178785 0.0178785 -0.0327922 -0.0487496
internal_weight=107.938 53.5958 20.0998 54.3418 15.2628 43.3662 37.6046 33.496 15.6464
internal_count=700 401 141 299 100 244 205 260 132
is_linear=0
shrinkage=0.05


Tree=13
num_leaves=9
num_cat=0
split_feature=11 8 12 5 2 4 1 5
split_gain=13.0208 8.97033 7.59304 5.65912 4.6371 3.29997 1.39279 0.71782
threshold=2.0761966133453766 35.416666666666671 32.500000000000007 0.047913043478260878 2.7867702420147675 2.9175098177522552 0.39050056466966288 0.079748689485044724
decision_type=8 2 2 2 2 2 2 2
left_child=1 -1 3 -3 -2 6 -6 -4
right_child=4 2 7 -5 5 -7 -8 -9
leaf_value=0.056911676191349903 -0.008999130846733136 -0.008999130846733136 -0.008999130846733136 0.042199959211850484 -0.027779043223313711 -0.008999130846733136 -0.051855074422083494 0.0023184526252126151
leaf_weight=9.7584105581045133 5.5878873392939559 6.8240840658545521 22.864232800900936 17.394890122115612 9.809650078415876 5.7546005398035041 15.496026448905466 14.010332003235815
leaf_count=50 33 43 155 83 82 43 132 79
internal_value=-0.000118433 0.0123967 0.00528634 0.0270367 -0.0243139 -0.0344937 -0.0425221 -0.00899913
internal_weight=107.5 70.8519 61.0935 24.219 36.6482 31.0603 25.3057 36.8746
internal_count=700 410 360 126 290 257 214 234
is_linear=0
shrinkage=0.05


Tree=14
num_leaves=9
num_cat=0
split_feature=6 5 8 14 8 0 5 9
split_gain=11.9283 8.04868 6.90505 5.3153 3.08705 1.899 0.863267 0.299938
threshold=9.5000000000000018 0.022851033145187362 70.833333333333343 0.22083333333333335 60.416666666666679 0.18586333320174614 0.085637891520244466 50.500000000000007
decision_type=2 2 2 2 2 2 2 2
left_child=1 7 3 -3 -2 -4 -6 -1
right_child=4 2 5 -5 6 -7 -8 -9
leaf_value=-0.044275618904422109 0.048389270572979565 -0.020770293925232917 -0.044275618904422109 0.022455228136797446 0.022455228136797446 -0.020770293925232917 0.045991735996679148 -0.057701097804506475
leaf_weight=10.280247680842871 12.129835203289987 6.1362785175442687 7.8186209052801194 27.021413587033749 10.852157637476923 20.891031600534916 7.7175001353025428 4.1601738855242738
leaf_count=87 58 41 67 165 60 148 37 37
internal_value=-7.55602e-05 -0.010664 -0.00281878 0.0127246 0.0262436 -0.0207703 0.0224552 -0.0442756
internal_weight=107.007 76.3078 61.8673 33.1577 30.6995 28.7097 18.5697 14.4404
internal_count=700 545 421 206 155 215 97 124
is_linear=0
shrinkage=0.05


Tree=15
num_leaves=10
num_cat=0
split_feature=12 8 2 10 4 4 10 1 1
split_gain=11.1409 10.2044 7.33687 6.7127 4.59116 0.638985 0.579432 0.988224 0.51125
threshold=31.500000000000004 76.3888888888889 2.6398255992865081 0.27321433227530295 4.4354438374904932 4.5839854805216271 0.30007777129371521 0.42076404139935669 0.28040687944488313
decision_type=2 2 2 2 2 2 2 2 2
left_child=4 2 5 -4 8 -2 7 -3 -1
right_child=1 6 3 -5 -6 -7 -8 -9 -10
leaf_value=0.040008630330184022 0.019991196760711011 -0.038720637428646704 -0.038720637428646704 0.019991196760711011 0.060103840760049904 0.035336265502909837 -0.02168543316214375 -0.057374973032390024 0.019991196760711011
leaf_weight=7.8144190311432018 17.595258638262756 11.044496811926384 14.646656714379789 5.7746435552835456 7.1656611114740363 6.7841083556413642 3.8043911457061759 8.1309559792280179 23.927457988262177
leaf_count=39 101 88 117 40 34 36 28 76 141
internal_value=-0.000180593 -0.0124221 0.00147236 -0.0206358 0.0211453 0.0199912 -0.0395104 -0.0430468 0.0199912
internal_weight=106.688 67.7805 44.8007 20.4213 38.9075 24.3794 22.9798 19.1755 31.7419
internal_count=700 486 294 157 214 137 192 164 180
is_linear=0
shrinkage=0.05


Tree=16
num_leaves=8
num_cat=0
split_feature=5 2 8 12 11 11 9
split_gain=10.0904 8.76164 7.10636 5.67412 3.11293 0.862451 0.143853
threshold=0.022474747474747477 4.3772020722359262 35.416666666666671 32.500000000000007 2.3336335427335517 2.1262801610541859 34.500000000000007
decision_type=2 2 2 2 8 10 2
left_child=5 2 -2 -4 -3 -1 -7
right_child=1 4 3 -5 -6 6 -8
leaf_value=-0.026479184098687158 0.050785402399079693 -0.0055190248317753265 0.024158053959813214 -0.0055190248317753265 -0.038356716317206413 -0.042662798689075278 -0.056650319818574428
leaf_weight=7.5758112147450429 10.462156511843203 4.2621134519577009 27.025660492479801 39.863504603505135 9.8243157565593702 3.3055356219410896 4.1406840980052948
leaf_count=60 52 30 139 259 89 30 41
internal_value=-0.000378902 0.00586036 0.0124653 0.0064716 -0.0304085 -0.0383567 -0.050441
internal_weight=106.46 91.4378 77.3513 66.8892 14.0864 15.022 7.44622
internal_count=700 569 450 398 119 131 71
is_linear=0
shrinkage=0.05


Tree=17
num_leaves=11
num_cat=0
split_feature=5 8 0 9 4 8 1 1 7 1
split_gain=9.5389 6.5174 5.71379 4.75475 3.48406 1.62045 2.4957 0.744207 0.106562 5.26272e-05
threshold=0.060373756074982653 85.416666666666686 0.37372759991894827 15.500000000000002 4.5233593257037681 88.194444444444457 0.31847084895127559 0.42076404139935669 1600629.8450000002 0.5147687263748606
decision_type=2 2 2 2 2 2 2 2 2 2
left_child=1 2 3 -1 5 6 -2 8 -3 -9
right_child=4 7 -4 -5 -6 -7 -8 9 -10 -11
leaf_value=0.013965760275386527 0.035812787316238291 -0.030808434926623648 0.013965760275386527 -0.030808434926623648 0.041601666997270977 -0.014425021054707455 0.013965760275386527 -0.056320891304823956 -0.041161769826832735 -0.056604194468305384
leaf_weight=8.5252896621823329 13.572544619441031 4.9561708495020813 8.203607462346552 19.200744450092316 11.4045432806015 7.829702951014041 22.553430542349815 3.635303921997548 3.2088292688131332 2.9855001345276833
leaf_count=59 65 40 48 155 55 50 129 38 31 30
internal_value=-0.000385248 -0.0160506 -0.00455231 -0.0170114 0.0139658 0.0139658 0.0139658 -0.0439915 -0.0338904 -0.0564486
internal_weight=106.076 50.7154 35.9296 27.726 55.3602 43.9557 36.126 14.7858 8.165 6.6208
internal_count=700 401 262 214 299 244 194 139 71 68
is_linear=0
shrinkage=0.05


Tree=18
num_leaves=10
num_cat=0
split_feature=5 2 12 8 4 8 9 0 11
split_gain=8.74579 7.61346 6.02348 6.41731 5.29145 1.38343 0.473624 0.384761 0.0816232
threshold=0.022474747474747477 4.3772020722359262 32.500000000000007 76.3888888888889 4.4354438374904932 60.416666666666679 52.500000000000007 0.22936353274784246 2.1438236669805364
decision_type=2 2 2 2 2 2 2 2 10
left_child=6 2 4 -4 -2 -3 8 -7 -1
right_child=1 5 3 -5 -6 7 -8 -9 -10
leaf_value=-0.036860587429953233 0.016633014990820146 -0.0015721790343214822 0.010307505522212252 -0.029255207551902602 0.064437614835964593 -0.036860587429953233 -0.056545203396338076 -0.029255207551902602 -0.047017919009579405
leaf_weight=6.1212909966707212 26.077718704938889 3.4105731546878788 33.097055122256279 11.213645949959753 7.4401615113019934 7.0031097978353483 3.0557668730616561 3.2187688872218132 5.1024703681468964
leaf_count=49 134 26 198 84 34 67 31 26 51
internal_value=-0.000468268 0.00521355 0.0112511 -0.000846753 0.0272445 -0.0292552 -0.0368606 -0.0368606 -0.0368606
internal_weight=105.741 91.461 77.8286 44.3107 33.5179 13.6325 14.2795 10.2219 11.2238
internal_count=700 569 450 282 168 119 131 93 100
is_linear=0
shrinkage=0.05


Tree=19
num_leaves=8
num_cat=0
split_feature=5 2 8 12 11 11 9
split_gain=7.96292 6.98842 5.83431 4.47179 2.90883 0.88873 0.156313
threshold=0.022474747474747477 4.3772020722359262 35.416666666666671 32.500000000000007 2.3336335427335517 2.1262801610541859 34.500000000000007
decision_type=2 2 2 2 8 10 2
left_child=5 2 -2 -4 -3 -1 -7
right_child=1 4 3 -5 -6 6 -8
leaf_value=-0.023493404577136667 0.044749834085160048 -0.005581593759844879 0.020634917456493117 -0.005581593759844879 -0.035832906363805789 -0.040432034317346703 -0.055763936296553678
leaf_weight=7.0960349291563016 10.789060935378073 4.1557177752256376 27.526537276804447 39.760420940816402 9.2181433215737325 3.0214179679751396 3.6960281580686569
leaf_count=60 52 30 139 259 89 30 41
internal_value=-0.000448851 0.0048959 0.0106164 0.00514336 -0.0285004 -0.0358329 -0.0488679
internal_weight=105.263 91.4499 78.076 67.287 13.3739 13.8135 6.71745
internal_count=700 569 450 398 119 131 71
is_linear=0
shrinkage=0.05


Tree=20
num_leaves=11
num_cat=0
split_feature=8 0 9 5 5 1 11 1 9 1
split_gain=7.46961 6.58311 9.52212 3.2495 3.01353 2.98441 0.881083 0.403867 0.173555 2.6191e-05
threshold=85.416666666666686 0.37372759991894827 15.500000000000002 0.062397540983606566 0.022474747474747477 0.33946800351506895 1.0989635242191478 0.42076404139935669 23.500000000000004 0.5147687263748606
decision_type=2 2 2 2 2 2 10 2 2 2
left_child=1 2 5 7 -4 -1 -3 -2 -8 -9
right_child=3 6 4 -5 -6 -7 8 9 -10 -11
leaf_value=0.028207411417953077 -0.043015821042294677 0.044644774398994648 -0.043015821042294677 -0.016659857997442538 -0.01046812766435175 0.0029231138260919108 0.028207411417953077 -0.055743277743770407 0.014365576041623555 -0.055951077165969768
leaf_weight=6.1466320231556919 8.0240171775221842 8.1525326222181409 6.1690139621496192 9.4764891639351827 32.406201213598251 11.683705329895018 8.7811119779944438 3.4183721989393243 7.8875113651156417 2.7252791225910187
leaf_count=32 73 37 59 59 208 74 46 39 43 30
internal_value=-0.000449955 0.00674957 -0.00269291 -0.0251831 -0.0166599 0.027524 0.0282074 -0.0430158 0.0282074 -0.0558355
internal_weight=104.871 81.2267 56.4056 23.6442 38.5752 17.8303 24.8212 14.1677 16.6686 6.14365
internal_count=700 499 373 201 267 106 126 142 89 69
is_linear=0
shrinkage=0.05


Tree=21
num_leaves=10
num_cat=0
split_feature=12 8 2 10 4 10 1 4 1
split_gain=7.04189 7.5786 5.15954 5.91802 2.97395 0.658088 1.05353 0.375631 0.35045
threshold=31.500000000000004 76.3888888888889 2.6398255992865081 0.27321433227530295 4.4354438374904932 0.30645129172323543 0.42076404139935669 4.5839854805216271 0.28040687944488313
decision_type=2 2 2 2 2 2 2 2 2
left_child=4 2 7 -4 8 6 -3 -2 -1
right_child=1 5 3 -5 -6 -7 -8 -9 -10
leaf_value=0.033596190531428066 0.016125503580267823 -0.035791812163780919 -0.035791812163780919 0.016125503580267823 0.047740037876616001 -0.015405884618804988 -0.056131032260868442 0.027585443968760621 0.016125503580267823
leaf_weight=8.0194670483469945 17.922912321984782 9.8590801134705703 13.579840719699861 5.7901429608464232 7.4415368139743796 3.3097521588206282 7.0187711566686621 7.150499925017356 24.130298346281052
leaf_count=39 101 88 117 40 34 26 78 36 141
internal_value=-0.000215444 -0.0103876 0.00115178 -0.0182309 0.0163902 -0.0357918 -0.0397895 0.0161255 0.0161255
internal_weight=104.222 64.631 44.4434 19.37 39.5913 20.1876 16.8779 25.0734 32.1498
internal_count=700 486 294 157 214 192 166 137 180
is_linear=0
shrinkage=0.05


Tree=22
num_leaves=9
num_cat=0
split_feature=5 9 2 4 14 8 1 7
split_gain=6.67724 5.29838 5.85347 2.52988 1.38 1.37229 0.49562 0.434741
threshold=0.060373756074982653 24.500000000000004 4.044064949587832 4.4615314586788708 0.31704166666666672 76.3888888888889 0.28775325991980599 1682575.4900000002
decision_type=2 2 2 2 2 2 2 2
left_child=1 2 4 6 -1 -3 -2 -7
right_child=3 5 -4 -5 -6 7 -8 -9
leaf_value=-0.021312627989983721 0.027644293962827068 -0.027693884451316382 -0.027693884451316382 0.034155172181240832 0.011401779192044981 -0.036268182441811007 0.011401779192044981 -0.055296492872856352
leaf_weight=4.9435924142599115 11.423348218202589 16.405244432389743 4.0041553676128379 12.216536968946455 10.552697964012621 7.0030288174748438 32.115391202270985 5.2535706162452698
leaf_count=36 54 128 41 58 64 69 187 63
internal_value=-0.000377929 -0.0140148 0.00609089 0.0114018 0.0114018 -0.0276939 0.0114018 -0.0444243
internal_weight=103.918 48.1623 19.5004 55.7553 15.4963 28.6618 43.5387 12.2566
internal_count=700 401 141 299 100 260 241 132
is_linear=0
shrinkage=0.05


Tree=23
num_leaves=8
num_cat=0
split_feature=5 2 8 12 11 11 9
split_gain=6.19633 5.42864 4.67032 3.42143 2.64945 0.895464 0.182071
threshold=0.022474747474747477 4.3772020722359262 35.416666666666671 32.500000000000007 2.3336335427335517 2.1262801610541859 32.500000000000007
decision_type=2 2 2 2 8 10 2
left_child=5 2 -2 -4 -3 -1 -7
right_child=1 4 3 -5 -6 6 -8
leaf_value=-0.02058343573832401 0.039167932344648992 -0.0053737201140255965 0.017519234924005467 -0.0053737201140255965 -0.033227843826484547 -0.037450310939221562 -0.055020241125125692
leaf_weight=6.6364655494689924 11.062698587775229 4.0733804404735547 27.865289270877838 39.394640222191811 8.5041223093867284 2.6405490189790726 3.3389877341687679
leaf_count=60 52 30 139 259 89 29 42
internal_value=-0.000391522 0.00416582 0.00906233 0.00411066 -0.0263257 -0.0332278 -0.0472614
internal_weight=103.516 90.9001 78.3226 67.2599 12.5775 12.616 5.97954
internal_count=700 569 450 398 119 131 71
is_linear=0
shrinkage=0.05


Tree=24
num_leaves=8
num_cat=0
split_feature=5 9 13 8 9 11 9
split_gain=5.72661 5.08175 5.39694 6.00117 2.43969 0.468996 0.186175
threshold=0.022474747474747477 62.500000000000007 35.500000000000007 76.3888888888889 12.500000000000002 2.1262801610541859 32.500000000000007
decision_type=2 2 2 2 2 10 2
left_child=5 2 4 -4 -2 -1 -7
right_child=1 -3 3 -5 -6 6 -8
leaf_value=-0.032419906392111529 0.039789052750062191 -0.032419906392111529 0.0060004588179006129 -0.032419906392111529 0.012560464116673215 -0.036661235678518873 -0.054753910571964971
leaf_weight=6.5382925942540133 12.118572004139422 6.4203511252999297 35.489816509187222 11.197233498096464 25.616182535886765 2.5644631534814835 3.1912016086280346
leaf_count=60 59 52 219 102 137 29 42
internal_value=-0.000393259 0.00394101 0.00724306 -0.00412245 0.021305 -0.0324199 -0.0466926
internal_weight=103.136 90.8422 84.4218 46.6871 37.7348 12.294 5.75566
internal_count=700 569 517 321 196 131 71
is_linear=0
shrinkage=0.05


Tree=25
num_leaves=9
num_cat=0
split_feature=6 13 5 9 8 3 14 9
split_gain=5.44239 4.45005 4.89121 3.42482 1.74918 3.44158 1.62021 0.816142
threshold=9.5000000000000018 31.500000000000004 0.060373756074982653 18.500000000000004 64.583333333333343 -1.0000000180025095e-35 0.23800000000000002 31.500000000000004
decision_type=2 2 2 2 2 10 2 2
left_child=1 7 6 -4 5 -2 -3 -1
right_child=4 2 3 -5 -6 -7 -8 -9
leaf_value=0.013749801823381202 0.057605880513223975 -0.046112494434835311 0.013749801823381202 -0.014379670685760107 0.013749801823381202 0.013749801823381202 -0.020902698569729251 -0.0047765642444543965
leaf_weight=11.629500448703768 6.9035666435956955 9.5827998593449681 8.9010314270854014 15.941018179059027 17.827092416584492 6.9976594448089688 19.030243273824453 5.9446373805403701
leaf_count=61 31 105 51 101 92 32 186 41
internal_value=-0.000386427 -0.00807708 -0.015253 0.00097902 0.0168304 0.0320865 -0.0293457 0.0137498
internal_weight=102.758 71.0292 53.4551 24.842 31.7283 13.9012 28.613 17.5741
internal_count=700 545 443 152 155 63 291 102
is_linear=0
shrinkage=0.05


Tree=26
num_leaves=11
num_cat=0
split_feature=8 0 9 5 5 1 11 1 9 1
split_gain=5.0483 4.51359 7.73969 2.62925 2.37611 2.12586 0.621242 0.444575 0.081446 6.14692e-05
threshold=85.416666666666686 0.37372759991894827 15.500000000000002 0.062397540983606566 0.022474747474747477 0.33946800351506895 1.0989635242191478 0.42076404139935669 23.500000000000004 0.52462675041226448
decision_type=2 2 2 2 2 2 10 2 2 2
left_child=1 2 5 7 -4 -1 -3 -2 -8 -9
right_child=3 6 4 -5 -6 -7 8 9 -10 -11
leaf_value=0.02286284087133382 -0.040165229868293024 0.036536840279001663 -0.040165229868293024 -0.015640866753717488 -0.010352684566891982 0.0015170704151191295 0.02286284087133382 -0.054717723053425572 0.011903871243212811 -0.055067866154685521
leaf_weight=6.3618403524160412 7.1691956445574814 8.3063347786665052 5.3783956058323374 9.2451745420694333 31.930699795484543 11.739314801990984 9.0258190557360667 2.9802876375615597 8.0032259151339513 2.1632801368832588
leaf_count=32 73 37 59 59 208 74 46 41 43 28
internal_value=-0.000358702 0.00538037 -0.00261319 -0.0218545 -0.0156409 0.0228628 0.0228628 -0.0401652 0.0228628 -0.054865
internal_weight=102.304 80.7456 55.4103 21.5579 37.3091 18.1012 25.3354 12.3128 17.029 5.14357
internal_count=700 499 373 201 267 106 126 142 89 69
is_linear=0
shrinkage=0.05


Tree=27
num_leaves=9
num_cat=0
split_feature=9 12 8 2 0 3 1 14
split_gain=4.9024 5.05772 6.29752 3.7735 1.90501 0.822566 0.549595 0.363579
threshold=62.500000000000007 31.500000000000004 76.3888888888889 2.6398255992865081 0.43666488584547553 10.370306861995712 0.28040687944488313 0.24850000000000003
decision_type=2 2 2 2 2 8 2 2
left_child=1 4 3 -3 6 -2 -1 -4
right_child=5 2 7 -5 -6 -7 -8 -9
leaf_value=0.033017188455997236 -0.034240165435376391 0.016383491361026275 -0.034240165435376391 -0.01410395858793391 0.041527713001856023 -0.059186850792203788 0.016383491361026275 -0.0241276644568593
leaf_weight=8.2696519792079943 3.3386963307857505 23.942092269659042 6.214541677385566 17.617984808981419 7.5554790124297133 3.7230406552553177 22.127940021455288 8.8883621990680677
leaf_count=40 28 128 70 148 34 37 126 89
internal_value=-0.000127402 0.002872 -0.00658903 0.00345937 0.0169971 -0.0403146 0.0163835 -0.0342402
internal_weight=101.678 94.6161 56.663 41.5601 37.9531 7.06174 30.3976 15.1029
internal_count=700 635 435 276 200 65 166 159
is_linear=0
shrinkage=0.05


Tree=28
num_leaves=7
num_cat=0
split_feature=5 14 9 1 11 9
split_gain=4.47814 4.38828 4.17608 3.74926 0.489965 0.19685
threshold=0.022474747474747477 0.16025000000000003 62.500000000000007 0.5363818406553299 2.1262801610541859 32.500000000000007
decision_type=2 2 2 2 10 2
left_child=4 -2 3 -3 -1 -6
right_child=1 2 -4 -5 5 -7
leaf_value=-0.029944068055784558 -0.029944068055784558 0.013445363706415837 -0.029944068055784558 -0.01903315616269164 -0.034645947911173654 -0.054192818037230854
leaf_weight=6.1232346817851049 5.3112538270652285 68.996701497584581 5.596492711454629 10.199243120849131 2.363006666302681 2.8312793932855129
leaf_count=60 46 403 47 73 29 42
internal_value=-0.000299177 0.00342439 0.0062855 0.00926262 -0.0299441 -0.0453005
internal_weight=101.421 90.1037 84.7924 79.1959 11.3175 5.19429
internal_count=700 569 523 476 131 71
is_linear=0
shrinkage=0.05


Tree=29
num_leaves=9
num_cat=0
split_feature=9 12 8 2 0 3 1 14
split_gain=4.1795 4.28472 5.82732 3.26939 1.68377 0.806096 0.434834 0.353335
threshold=62.500000000000007 31.500000000000004 76.3888888888889 2.6398255992865081 0.43666488584547553 10.370306861995712 0.28040687944488313 0.24850000000000003
decision_type=2 2 2 2 2 8 2 2
left_child=1 4 3 -3 6 -2 -1 -4
right_child=5 2 7 -5 -6 -7 -8 -9
leaf_value=0.030699818939643655 -0.033435932455199928 0.015088878436584453 -0.033435932455199928 -0.013345582443335805 0.038614615079472531 -0.058480325534485712 0.015088878436584453 -0.023373044597938118
leaf_weight=8.3419796898961085 3.2079753577709189 24.171847224235535 5.9723505042493317 17.376350909471512 7.6093320697545996 3.484820581972599 22.27756854891777 8.7233229540288431
leaf_count=40 28 128 70 148 34 37 126 89
internal_value=-0.000300823 0.00240417 -0.00637465 0.00319697 0.0153199 -0.0384834 0.0150889 -0.0334359
internal_weight=101.166 94.4728 56.2439 41.5482 38.2289 6.6928 30.6195 14.6957
internal_count=700 635 435 276 200 65 166 159
is_linear=0
shrinkage=0.05


Tree=30
num_leaves=8
num_cat=0
split_feature=5 14 4 9 12 11 9
split_gain=3.92303 3.9761 3.6838 4.10925 1.7227 0.495667 0.201133
threshold=0.022474747474747477 0.16025000000000003 4.4354438374904932 62.500000000000007 32.500000000000007 2.1262801610541859 32.500000000000007
decision_type=2 2 2 2 2 10 2
left_child=5 -2 3 -3 -4 -1 -7
right_child=1 2 4 -5 -6 6 -8
leaf_value=-0.028786473322820173 -0.028786473322820173 0.0040395077505272622 0.043597340834633541 -0.028786473322820173 0.011686274632697577 -0.033721171405102994 -0.053952189892633784
leaf_weight=5.9584023766219598 5.1518061906099311 63.342235647141933 7.8812075555324581 4.4931402131915084 9.1272214949130994 2.2807589471340179 2.6629139631986618
leaf_count=60 46 398 35 42 48 29 42
internal_value=-0.000459749 0.00297175 0.0056662 0.000449307 0.0264729 -0.0287865 -0.0446186
internal_weight=100.898 89.9956 84.8438 67.8354 17.0084 10.9021 4.94367
internal_count=700 569 523 440 83 131 71
is_linear=0
shrinkage=0.05


Tree=31
num_leaves=7
num_cat=0
split_feature=2 1 9 5 8 4
split_gain=3.67163 3.24065 4.16366 4.76695 4.03186 1.03987
threshold=5.0882576942732882 0.56303604773125748 24.500000000000004 0.063966175668303329 35.416666666666671 1.5950575209509028
decision_type=2 2 2 2 2 2
left_child=1 2 4 -4 -1 -2
right_child=5 -3 3 -5 -6 -7
leaf_value=0.052944705349060775 -0.0551773921207937 -0.02827440471611388 -0.023154533303207731 0.0097723375445090757 0.010063664454880279 -0.02827440471611388
leaf_weight=6.5808442309498778 3.5918628945946658 6.2002233117818824 20.054063737392426 24.325278490781784 32.820091471076012 7.0378171391785145
leaf_count=31 48 41 181 131 187 81
internal_value=-0.000484156 0.00279879 0.00539606 -0.0051066 0.0172258 -0.0282744
internal_weight=100.61 89.9805 83.7803 44.3793 39.4009 10.6297
internal_count=700 571 530 312 218 129
is_linear=0
shrinkage=0.05


Tree=32
num_leaves=8
num_cat=0
split_feature=14 5 4 9 14 1 9
split_gain=3.60787 3.61184 3.19293 3.26372 1.60915 0.97664 0.568134
threshold=0.16025000000000003 0.022474747474747477 4.4354438374904932 58.500000000000007 0.31704166666666672 0.37810470300309779 21.500000000000004
decision_type=2 2 2 2 2 2 2
left_child=5 6 3 -3 -4 -1 -2
right_child=1 2 4 -5 -6 -7 -8
leaf_value=-0.028282331131925437 -0.0058693425074032067 0.0037327974567363583 0.0049158430463680089 -0.028282331131925437 0.036533419289911342 -0.058146991386867991 -0.028282331131925437
leaf_weight=3.3725933805108061 2.8274275101721269 62.182149711996317 6.4773961752653149 5.475530292838811 10.625433988869188 3.2035400979220867 6.0392708443105221
leaf_count=33 27 392 34 48 49 38 79
internal_value=-0.00043344 0.00208098 0.00525726 0.000378114 0.0245588 -0.0362324 -0.0282823
internal_weight=100.203 93.6272 84.7605 67.6577 17.1028 6.57613 8.8667
internal_count=700 629 523 440 83 71 106
is_linear=0
shrinkage=0.05


Tree=33
num_leaves=8
num_cat=0
split_feature=9 8 10 1 2 3 13
split_gain=3.34152 3.61864 3.39715 2.36165 1.86955 0.833151 0.352688
threshold=62.500000000000007 85.416666666666686 0.30520962533724677 0.19498013078182633 0.55127058497963233 11.602993376487239 33.500000000000007
decision_type=2 2 2 2 2 10 2
left_child=1 3 6 -1 -5 -2 -3
right_child=5 2 -4 4 -6 -7 -8
leaf_value=0.035431743775463286 -0.031126342689734611 -0.015667859956977604 0.0065528070178609392 0.030802462733043164 0.0065528070178609392 -0.05774565142004378 -0.031126342689734611
leaf_weight=7.0793450325727454 3.0306087993085375 3.6897479444742212 3.4422092586755744 8.9711785763502103 60.506153605878353 3.1516841351985931 10.098607957363127
leaf_count=34 28 24 25 39 394 37 119
internal_value=-0.000453571 0.00189342 -0.0188086 0.00655281 0.00655281 -0.0360581 -0.0311263
internal_weight=99.9695 93.7872 17.2306 76.5567 69.4773 6.18229 13.7884
internal_count=700 635 168 467 433 65 143
is_linear=0
shrinkage=0.05


Tree=34
num_leaves=7
num_cat=0
split_feature=14 2 1 9 1 0
split_gain=3.21959 3.37013 2.96274 3.48308 0.999922 8.88178e-16
threshold=0.16025000000000003 5.0882576942732882 0.56303604773125748 24.500000000000004 0.37751619289145028 0.23521750853068488
decision_type=2 2 2 2 2 2
left_child=4 2 3 -2 -1 -3
right_child=1 5 -4 -5 -6 -7
leaf_value=-0.027948220691972128 0.018284720544503291 -0.027948220691972128 -0.027948220691972128 -0.0027288402153125679 -0.057669212409501458 -0.027948220691972128
leaf_weight=3.1334235146641722 37.693396039307117 6.2632309980690462 5.7599109932780257 41.355816949158907 3.1980531066656113 2.4155581034719944
leaf_count=31 202 79 38 285 40 25
internal_value=-0.000608988 0.0017279 0.00476475 0.00729115 -0.0351145 -0.0279482
internal_weight=99.8194 93.4879 84.8091 79.0492 6.33148 8.67879
internal_count=700 629 525 487 71 104
is_linear=0
shrinkage=0.05


Tree=35
num_leaves=10
num_cat=0
split_feature=5 9 14 14 10 1 9 5 13
split_gain=3.04002 4.22168 3.82069 2.60997 2.24773 2.07403 1.82556 1.0845 0.836607
threshold=0.063966175668303329 24.500000000000004 0.31704166666666672 0.48300000000000004 0.25956893149345067 0.33264134196256162 33.500000000000007 0.097718253968253982 48.500000000000007
decision_type=2 2 2 2 2 2 2 2 2
left_child=1 2 4 8 -1 6 7 -2 -3
right_child=5 3 -4 -5 -6 -7 -8 -9 -10
leaf_value=-0.029731788206069656 0.020519027963843771 -0.029731788206069656 0.007616936328065713 0.007616936328065713 0.007616936328065713 0.007616936328065713 0.007616936328065713 0.047165932755500288 -0.055051867877789755
leaf_weight=4.100664850324395 8.2818376570940035 19.191574010998032 13.69461305066943 2.8654211759567252 3.3937121331691742 30.121075116097927 7.5400509089231482 7.0848742276430121 3.2623566165566436
leaf_count=38 38 195 88 25 25 177 36 31 47
internal_value=-0.000566414 -0.0098969 0.00657024 -0.0236777 -0.0236777 0.00761694 0.0226621 0.0328047 -0.0297318
internal_weight=99.5362 46.5083 21.189 25.3194 7.49438 53.0278 22.9068 15.3667 22.4539
internal_count=700 418 151 267 63 282 105 69 242
is_linear=0
shrinkage=0.05


Tree=36
num_leaves=9
num_cat=0
split_feature=9 13 10 12 1 3 0 10
split_gain=2.86794 3.1127 3.74632 4.75389 2.67211 0.615302 0.511911 0.264865
threshold=62.500000000000007 31.500000000000004 0.26972847091832625 41.500000000000007 0.42076404139935669 11.602993376487239 0.43307448555877265 0.18925721913128837
decision_type=2 2 2 2 2 10 2 2
left_child=1 6 4 -4 -3 -2 7 -1
right_child=5 2 3 -5 -6 -7 -8 -9
leaf_value=0.0015340161689899154 -0.034500093962587935 -0.013040828874259528 0.015785707046743116 -0.013040828874259528 -0.034500093962587935 -0.057350394939356508 0.029356227274554093 0.015785707046743116
leaf_weight=5.4299021065235307 2.9272571727633467 32.863315518945456 13.154583722352983 9.9820477440953237 10.20617491006851 2.9460784830152988 6.9493004828691474 14.75024952739477
leaf_count=32 28 238 77 68 114 37 30 76
internal_value=-0.000610916 0.00152163 -0.0043234 0.0119044 -0.0130408 -0.0345001 0.0157857 0.0157857
internal_weight=99.2089 93.3356 66.2061 23.1366 43.0695 5.87334 27.1295 20.1802
internal_count=700 635 497 145 352 65 138 108
is_linear=0
shrinkage=0.05


Tree=37
num_leaves=8
num_cat=0
split_feature=14 5 4 9 12 1 9
split_gain=2.77243 2.98937 2.51329 2.56105 1.47746 1.07677 0.493776
threshold=0.16025000000000003 0.022474747474747477 4.4354438374904932 58.500000000000007 32.500000000000007 0.37056610960180592 21.500000000000004
decision_type=2 2 2 2 2 2 2
left_child=5 6 3 -3 -4 -1 -2
right_child=1 2 4 -5 -6 -7 -8
leaf_value=-0.02665491578180992 -0.005675367263985466 0.0031026535759693654 0.037643601695679804 -0.02665491578180992 0.0082049822315517704 -0.057075974125606437 -0.02665491578180992
leaf_weight=2.7761716432869425 2.8046447336673719 62.050744943320751 7.8602930605411556 5.043352209031581 9.3105273321270925 3.1993505507707596 5.6026516146957874
leaf_count=28 27 392 35 48 48 43 79
internal_value=-0.000353171 0.00177531 0.00461186 0.000243466 0.0216811 -0.033363 -0.0266549
internal_weight=98.6477 92.6722 84.2649 67.0941 17.1708 5.97552 8.4073
internal_count=700 629 523 440 83 71 106
is_linear=0
shrinkage=0.05


Tree=38
num_leaves=7
num_cat=0
split_feature=14 2 1 10 1 5
split_gain=2.50433 2.81686 2.75415 2.68504 1.05248 4.44089e-16
threshold=0.16025000000000003 5.0882576942732882 0.56303604773125748 0.28277909957741881 0.37056610960180592 0.069114793252724308
decision_type=2 2 2 2 2 2
left_child=4 2 3 -2 -1 -3
right_child=1 5 -4 -5 -6 -7
leaf_value=-0.026272125741881366 0.00067827391963738628 -0.026272125741881366 -0.026272125741881366 0.020743399097309611 -0.056726316022249826 -0.026272125741881366
leaf_weight=2.7255702801048747 54.678097441792488 5.7974467501044256 5.6888220943510523 23.987027734518051 3.0616007149219513 2.4419999122619629
leaf_count=28 360 86 38 127 43 18
internal_value=-0.000362498 0.00163186 0.00435744 0.00679665 -0.0322718 -0.0262721
internal_weight=98.3806 92.5934 84.3539 78.6651 5.78717 8.23945
internal_count=700 629 525 487 71 104
is_linear=0
shrinkage=0.05


Tree=39
num_leaves=8
num_cat=0
split_feature=9 8 10 1 10 3 13
split_gain=2.49233 2.77026 3.02193 2.0689 1.4848 0.804119 0.282663
threshold=62.500000000000007 85.416666666666686 0.30520962533724677 0.19498013078182633 0.14083534229170611 11.602993376487239 33.500000000000007
decision_type=2 2 2 2 2 10 2
left_child=1 3 6 -1 -5 -2 -3
right_child=5 2 -4 4 -6 -7 -8
leaf_value=0.032635722879347059 -0.029416365922186011 -0.016083573247951403 0.0056397760200732928 -0.016083573247951403 0.0057020255883295998 -0.056875294503672714 -0.029416365922186011
leaf_weight=7.0971181392669669 2.8228106610476962 3.6549622341990498 3.4003211520612231 8.9918393455445749 60.071782477200031 2.7508775368332863 9.3412781767547113
leaf_count=34 28 24 25 83 350 37 119
internal_value=-0.000329242 0.00162616 -0.0170168 0.00563978 0.00563978 -0.0328008 -0.0294164
internal_weight=98.131 92.5573 16.3966 76.1607 69.0636 5.57369 12.9962
internal_count=700 635 168 467 433 65 143
is_linear=0
shrinkage=0.05


Tree=40
num_leaves=8
num_cat=0
split_feature=5 2 8 11 0 11 9
split_gain=2.33729 2.40986 2.60496 2.17767 1.56074 0.91166 0.26953
threshold=0.022474747474747477 4.3772020722359262 35.416666666666671 2.3336335427335517 0.52393176776288342 2.1262801610541859 30.500000000000004
decision_type=2 2 2 8 2 10 2
left_child=5 2 -2 -3 -4 -1 -7
right_child=1 3 4 -5 -6 6 -8
leaf_value=-0.010370896718955837 0.027336648539056086 0.0015014163175750864 0.0015014163175750864 -0.023980893073104501 0.025787427913380619 -0.027173874715497426 -0.053124026139652107
leaf_weight=5.3277316279709321 11.4393063634634 3.817572243511675 59.729410871863365 6.8243580032140017 6.615426391363143 1.7749719135463236 2.2936091031879187
leaf_count=60 52 30 367 89 31 25 46
internal_value=-0.000271618 0.00224777 0.00530087 -0.020068 0.00150142 -0.0239809 -0.0418029
internal_weight=97.8224 88.4261 77.7841 10.6419 66.3448 9.39631 4.06858
internal_count=700 569 450 119 398 131 71
is_linear=0
shrinkage=0.05


Tree=41
num_leaves=8
num_cat=0
split_feature=9 8 10 1 10 3 13
split_gain=2.23126 2.40741 2.8361 1.8204 1.25199 0.80546 0.277844
threshold=62.500000000000007 85.416666666666686 0.30520962533724677 0.19498013078182633 0.14083534229170611 11.602993376487239 33.500000000000007
decision_type=2 2 2 2 2 10 2
left_child=1 3 6 -1 -5 -2 -3
right_child=5 2 -4 4 -6 -7 -8
leaf_value=0.030387711177257776 -0.028516417378684433 -0.01505392362117298 0.0051628638786615994 -0.01505392362117298 0.0051628638786615994 -0.056619501337898795 -0.028516417378684433
leaf_weight=7.1523746177554122 2.7634890452027312 3.6137831807136562 3.404471442103385 8.8115471974015218 60.22786683216691 2.6173890959471464 9.0628810301423055
leaf_count=34 28 24 25 83 350 37 119
internal_value=-0.000372578 0.00145254 -0.0161268 0.00516286 0.00516286 -0.0316702 -0.0285164
internal_weight=97.6538 92.2729 16.0811 76.1918 69.0394 5.38088 12.6767
internal_count=700 635 168 467 433 65 143
is_linear=0
shrinkage=0.05


Tree=42
num_leaves=8
num_cat=0
split_feature=14 5 1 13 1 5 1
split_gain=2.14423 2.41191 2.14491 2.60629 1.21743 0.544991 0.0201553
threshold=0.16025000000000003 0.022474747474747477 0.5363818406553299 31.500000000000004 0.35778315592694804 0.068532289628180046 0.4147859177781949
decision_type=2 2 2 2 2 2 2
left_child=4 6 3 -3 -1 -4 -2
right_child=1 2 5 -5 -6 -7 -8
leaf_value=-0.024831278873450185 -0.022547853755597261 0.020899413175384053 -0.024831278873450185 0.00062107833226721673 -0.056988987362690868 -0.0071905324037236668 -0.027608204758466121
leaf_weight=2.3398243300616732 4.3607478477060786 23.002886105328798 4.0113589353859407 50.922349117696285 3.1273674983531237 6.0016623884439468 3.5857785120606422
leaf_count=26 52 110 40 336 45 37 54
internal_value=-0.000313188 0.00149687 0.00398939 0.00693097 -0.0307341 -0.0177281 -0.0248313
internal_weight=97.352 91.8848 83.9383 73.9252 5.46719 10.013 7.94653
internal_count=700 629 523 446 71 77 106
is_linear=0
shrinkage=0.05


Tree=43
num_leaves=10
num_cat=0
split_feature=5 9 14 14 10 1 5 9 13
split_gain=2.03274 3.35044 3.19454 2.33437 1.81046 1.7083 1.58845 1.37202 0.830942
threshold=0.063966175668303329 24.500000000000004 0.31704166666666672 0.48300000000000004 0.25105630222132125 0.33264134196256162 0.081000546746856208 20.500000000000004 48.500000000000007
decision_type=2 2 2 2 2 2 2 2 2
left_child=1 2 4 8 -1 6 -2 -8 -3
right_child=5 3 -4 -5 -6 -7 7 -9 -10
leaf_value=-0.027398096463804752 0.0063575311070139251 -0.027398096463804752 0.0063575311070139251 0.0063575311070139251 0.0063575311070139251 0.0063575311070139251 0.044195288462997147 0.014685798595014949 -0.054605260135341421
leaf_weight=3.7312078364193466 7.1026566103100803 17.884423470124624 13.686799071729181 2.7680203095078459 3.4963684268295765 29.799459178000689 7.765257500112055 7.9937816932797432 2.8063650391995898
leaf_count=37 34 195 88 25 26 177 34 37 47
internal_value=-0.000285462 -0.00816923 0.00635753 -0.0211419 -0.0211419 0.00635753 0.0200253 0.0292266 -0.0273981
internal_weight=97.0343 44.3732 20.9144 23.4588 7.22758 52.6612 22.8617 15.759 20.6908
internal_count=700 418 151 267 63 282 105 71 242
is_linear=0
shrinkage=0.05


Tree=44
num_leaves=9
num_cat=0
split_feature=9 12 8 2 11 3 10 14
split_gain=1.95208 2.05156 3.84044 1.62082 1.00351 0.727489 0.424086 0.322345
threshold=62.500000000000007 31.500000000000004 76.3888888888889 2.6398255992865081 0.84205234459381473 11.602993376487239 0.29857684023986036 0.24850000000000003
decision_type=2 2 2 2 10 10 2 2
left_child=1 4 3 -3 -1 -2 -6 -4
right_child=5 2 7 -5 6 -7 -8 -9
leaf_value=0.031641148285557329 -0.029118188770611859 0.010223123121627358 -0.029118188770611859 -0.0098383576184822314 0.010223123121627358 -0.056366723566917132 0.02200143810203585 -0.018937332081346639
leaf_weight=5.4689125120639792 2.6867777928709975 24.729272790253162 4.808156078681348 16.181091006845236 21.932855781167746 2.4591368846595287 10.675333850085734 7.7748567070811987
leaf_count=28 28 128 70 148 120 37 52 89
internal_value=-0.000331396 0.00135253 -0.00496165 0.0024683 0.0102231 -0.0302964 0.0102231 -0.0291182
internal_weight=96.7164 91.5705 53.4934 40.9104 38.0771 5.14591 32.6082 12.583
internal_count=700 635 435 276 200 65 172 159
is_linear=0
shrinkage=0.05


Tree=45
num_leaves=9
num_cat=0
split_feature=1 13 10 12 1 10 5 10
split_gain=1.93178 2.59289 3.09707 3.50638 1.72867 0.70366 0.671277 0.0658425
threshold=0.56303604773125748 31.500000000000004 0.26972847091832625 41.500000000000007 0.42076404139935669 0.3086939626935627 0.068532289628180046 0.23920209740670434
decision_type=2 2 2 2 2 2 2 2
left_child=1 5 4 -4 -3 7 -2 -1
right_child=6 2 3 -5 -6 -7 -8 -9
leaf_value=0.0072840865467327411 -0.043712875966947534 -0.011119313960111406 0.01524949696039265 -0.011119313960111406 -0.022638009126862313 0.031754005234996011 -0.022638009126862313 0.01524949696039265
leaf_weight=12.026295728981511 3.7784377224743348 33.773345526307821 11.527500044554474 7.5006078556179991 9.3229615073651058 6.4579945504665366 5.1271045133471489 6.9575094729661933
leaf_count=68 46 262 63 48 119 29 32 33
internal_value=-0.000451585 0.00180479 -0.00370122 0.0130998 -0.0111193 0.0152495 -0.022638 0.0152495
internal_weight=96.4718 87.5662 62.1244 19.0281 43.0963 25.4418 8.90554 18.9838
internal_count=700 622 492 111 381 130 78 101
is_linear=0
shrinkage=0.05


Tree=46
num_leaves=6
num_cat=0
split_feature=4 12 1 10 14
split_gain=1.82057 2.54054 2.81559 3.80387 0.678982
threshold=6.4212727942277708 52.500000000000007 0.56148278194598766 0.28277909957741881 0.22083333333333335
decision_type=2 2 2 2 2
left_child=1 2 3 -1 -3
right_child=-2 4 -4 -5 -6
leaf_value=-0.0030553102717413264 0.027406995049537131 -0.044537773212296433 -0.023482580251467166 0.022361015460892489 -0.023482580251467166
leaf_weight=50.286823190748692 5.5986781045794478 3.8289498612284634 7.3992710169404736 20.814370963722467 8.091064212843774
leaf_count=376 27 51 62 109 75
internal_value=-0.000261508 -0.00197469 0.0012912 0.00438514 -0.0234826
internal_weight=96.0192 90.4205 78.5005 71.1012 11.92
internal_count=700 673 547 485 126
is_linear=0
shrinkage=0.05


Tree=47
num_leaves=8
num_cat=0
split_feature=9 8 10 1 2 2 13
split_gain=1.72445 1.78956 2.52312 1.53207 0.914594 0.797041 0.307914
threshold=62.500000000000007 85.416666666666686 0.30520962533724677 0.19367857820360307 0.55127058497963233 2.3544491057818453 30.500000000000004
decision_type=2 2 2 2 2 2 2
left_child=1 3 6 -1 -5 -2 -3
right_child=5 2 -4 4 -6 -7 -8
leaf_value=0.028442971614576259 -0.026765922727132609 -0.0088452770488588253 0.0044927074684535393 0.021648744791950711 0.0044927074684535393 -0.054313649648418706 -0.026765922727132609
leaf_weight=6.6772681400179854 2.2887638695538035 2.3969635739922497 3.3181155584752551 9.0304173529148084 59.824785899370909 2.6576685961335897 9.5635959152132255
leaf_count=32 17 14 25 39 396 48 129
internal_value=-0.000230086 0.00133589 -0.0142703 0.00449271 0.00449271 -0.0289797 -0.0267659
internal_weight=95.7576 90.8111 15.2787 75.5325 68.8552 4.94643 11.9606
internal_count=700 635 168 467 435 65 143
is_linear=0
shrinkage=0.05


Tree=48
num_leaves=7
num_cat=0
split_feature=14 1 1 10 8 1
split_gain=1.62231 2.17082 1.42703 1.94517 3.85793 1.42192
threshold=0.16025000000000003 0.35611125284595502 0.56303604773125748 0.28277909957741881 43.055555555555564 0.42076404139935669
decision_type=2 2 2 2 2 2
left_child=1 -1 3 5 -5 -2
right_child=2 -3 -4 4 -6 -7
leaf_value=0.0012009290035993544 0.001829927411726215 -0.056579931450785319 -0.018787297145457148 0.051481501566907166 0.0046805616812694408 -0.017631645112026282
leaf_weight=2.1069179307669392 46.373045288026333 2.9075916837900877 8.1280644088983518 5.7764320448040989 18.524790804833174 11.767098791897295
leaf_count=25 303 46 70 26 101 129
internal_value=-0.000331808 -0.0280153 0.00120093 0.00317161 0.0158052 0.00120093
internal_weight=95.5839 5.01451 90.5694 82.4414 24.3012 58.1401
internal_count=700 71 629 559 127 432
is_linear=0
shrinkage=0.05


Tree=49
num_leaves=6
num_cat=0
split_feature=4 12 1 10 14
split_gain=1.54282 2.18609 2.4568 3.06486 0.662527
threshold=6.4212727942277708 52.500000000000007 0.56148278194598766 0.28277909957741881 0.22083333333333335
decision_type=2 2 2 2 2
left_child=1 2 3 -1 -3
right_child=-2 4 -4 -5 -6
leaf_value=-0.0027710908751442543 0.025131385389588271 -0.043543606397027104 -0.022193216527179746 0.019994186100147852 -0.022193216527179746
leaf_weight=49.948819087818265 5.6090794056653968 3.6335543841123563 7.2021706607192746 21.000369064509869 7.926291186362505
leaf_count=376 27 51 62 109 75
internal_value=-0.00030836 -0.00189895 0.0011029 0.00396724 -0.0221932
internal_weight=95.3203 89.7112 78.1514 70.9492 11.5598
internal_count=700 673 547 485 126
is_linear=0
shrinkage=0.05


Tree=50
num_leaves=8
num_cat=0
split_feature=9 8 10 1 3 2 13
split_gain=1.51578 1.46929 2.33368 1.39526 0.805469 0.719011 0.287537
threshold=62.500000000000007 85.416666666666686 0.30520962533724677 0.19367857820360307 11.602993376487239 0.55127058497963233 30.500000000000004
decision_type=2 2 2 2 10 2 2
left_child=1 3 6 -1 -2 -5 -3
right_child=4 2 -4 5 -6 -7 -8
leaf_value=0.026826796094298985 -0.025667705797710327 -0.0083018250659821456 0.0040124341700991479 0.019397364635547004 -0.055920724675338054 0.0040124341700991479 -0.025667705797710327
leaf_weight=6.701599493622779 2.5436574239283791 2.3836370632052395 3.2960168085992327 9.0321626514196378 2.2228354103863239 59.650721849873662 9.2340147607028467
leaf_count=32 28 14 25 39 37 396 129
internal_value=-0.000274975 0.00117559 -0.0131639 0.00401243 -0.0277551 0.00401243 -0.0256677
internal_weight=95.0646 90.2982 14.9137 75.3845 4.76649 68.6829 11.6177
internal_count=700 635 168 467 65 435 143
is_linear=0
shrinkage=0.05


Tree=51
num_leaves=9
num_cat=0
split_feature=5 1 13 14 11 8 1 12
split_gain=1.4537 1.4154 2.0442 2.94101 0.682235 0.549908 0.318079 0.0737545
threshold=0.022474747474747477 0.5363818406553299 31.500000000000004 0.481375 2.1262801610541859 70.833333333333343 0.39050056466966288 34.500000000000007
decision_type=2 2 2 2 10 2 2 2
left_child=4 2 5 -4 -1 -2 -6 -3
right_child=1 7 3 -5 6 -7 -8 -9
leaf_value=-0.016274504274906437 0.025763280897324572 -0.0099623984045865283 -0.0065472911956923913 0.016326969727606336 -0.022233747269742032 0.016326969727606336 -0.052748834398941361 -0.016274504274906437
leaf_weight=4.9387774765491468 15.439226105809214 4.6278595812618715 46.590795578435063 7.0440969690680495 1.5272127799689772 7.5659857690334311 1.9372135158628223 5.2241263128817081
leaf_count=60 70 33 336 41 25 40 46 49
internal_value=-0.000363757 0.00156519 0.00385846 -0.00148957 -0.0202179 0.016327 -0.039297 -0.0162745
internal_weight=94.8953 86.4921 76.6401 53.6349 8.4032 23.0052 3.46443 9.85199
internal_count=700 569 487 377 131 110 71 82
is_linear=0
shrinkage=0.05


Tree=52
num_leaves=9
num_cat=0
split_feature=5 14 8 9 1 5 9 1
split_gain=1.40709 2.75542 2.19533 1.96468 1.29927 1.37927 1.14009 0.682335
threshold=0.063966175668303329 0.48300000000000004 85.416666666666686 24.500000000000004 0.33264134196256162 0.081000546746856208 20.500000000000004 0.39338914379821888
decision_type=2 2 2 2 2 2 2 2
left_child=1 2 3 -1 5 -2 -7 -4
right_child=4 -3 7 -5 -6 6 -8 -9
leaf_value=0.0048173776935491871 0.0051671737014503533 0.0051671737014503533 -0.024120041020689931 -0.0211687119340957 0.0051671737014503533 0.039492303398258349 0.012523166727571009 -0.053748792666367208
leaf_weight=15.410575136542322 7.059448309242728 5.5887737758457652 4.406740875914692 13.775436175987123 29.203320309519768 7.7379333525896055 7.9395831376314163 3.4758700914680958
leaf_count=102 34 44 61 139 177 34 37 72
internal_value=-0.000359138 -0.00708806 -0.0137713 -0.00744774 0.00516717 0.0171195 0.0258343 -0.037185
internal_weight=94.5977 42.6574 37.0686 29.186 51.9403 22.737 15.6775 7.88261
internal_count=700 418 374 241 282 105 71 133
is_linear=0
shrinkage=0.05


Tree=53
num_leaves=7
num_cat=0
split_feature=14 1 4 10 8 1
split_gain=1.29964 2.45232 1.05741 0.923199 2.34997 1.19732
threshold=0.16025000000000003 0.34512795426852305 6.4212727942277708 0.28277909957741881 39.583333333333343 0.42076404139935669
decision_type=2 2 2 2 2 2
left_child=1 -1 3 5 -5 -2
right_child=2 -3 -4 4 -6 -7
leaf_value=0.00092287692691399379 0.00092287692691399379 -0.056266966131438979 0.022659337357396597 0.022659337357396597 0.0012214758947741359 -0.020330518072976908
leaf_weight=1.7935695089399804 42.441006699576974 2.9201294016093016 5.5950845256447783 6.3314217180013683 22.533867496997118 12.712768657132981
leaf_count=22 285 49 27 30 138 149
internal_value=-0.000423151 -0.0260131 0.000922877 0.000922877 0.0101995 0.000922877
internal_weight=94.3278 4.7137 89.6141 84.0191 28.8653 55.1538
internal_count=700 71 629 602 168 434
is_linear=0
shrinkage=0.05


Tree=54
num_leaves=9
num_cat=0
split_feature=9 3 12 10 5 5 3 10
split_gain=1.28251 1.33103 0.963814 0.867384 1.86775 0.580524 0.201934 0.0659548
threshold=62.500000000000007 10.370306861995712 31.500000000000004 0.23920209740670434 0.078609625668449215 0.047913043478260878 29.309397303925945 0.26972847091832625
decision_type=2 8 2 2 2 2 10 2
left_child=2 -2 3 4 -1 -5 7 -4
right_child=1 -3 6 5 -6 -7 -8 -9
leaf_value=-0.0014511785943091408 -0.0014511785943091408 -0.055736678037202669 -0.0014511785943091408 0.0023133992555676823 0.014555660478719472 0.02054197468632879 -0.01476145618900984 0.0021243849638916609
leaf_weight=11.036932464689018 2.4689028672873965 2.0808904524892569 28.37214214913547 6.5034790001809624 7.0052501335740081 13.299884706735609 4.3919605370610943 18.928545460104942
leaf_count=70 28 37 256 38 32 60 57 122
internal_value=-0.000382636 -0.0262792 0.00093327 0.00733057 -0.000599798 0.0145557 -0.00145118 -0.00145118
internal_weight=94.088 4.54979 89.5382 37.8455 18.0422 19.8034 51.6926 47.3007
internal_count=700 65 635 200 102 98 435 378
is_linear=0
shrinkage=0.05


Tree=55
num_leaves=7
num_cat=0
split_feature=1 2 12 3 5 14
split_gain=1.18139 1.44032 1.80907 1.97891 0.679803 0.0684734
threshold=0.56303604773125748 5.0882576942732882 52.500000000000007 29.309397303925945 0.068532289628180046 0.24295833333333336
decision_type=2 2 2 10 2 2
left_child=1 2 3 -1 -2 -4
right_child=4 -3 5 -5 -6 -7
leaf_value=0.0081184833722601751 -0.041220090352317745 -0.018612382556649088 -0.018612382556649088 -0.017548294042570172 -0.018612382556649088 -0.017548294042570172
leaf_weight=65.721067300066352 3.3251426313072425 5.0712044080719343 3.1003522109240276 5.4614366702735415 4.8785020224750042 6.4170255213975906
leaf_count=398 46 92 34 45 32 53
internal_value=-0.000485296 0.00124848 0.00292506 0.00566242 -0.0186124 -0.0175483
internal_weight=93.9747 85.7711 80.6999 71.1825 8.20364 9.51738
internal_count=700 622 530 443 78 87
is_linear=0
shrinkage=0.05


Tree=56
num_leaves=7
num_cat=0
split_feature=9 3 4 10 13 13
split_gain=1.17171 1.27808 0.881884 1.2951 2.07348 0.297638
threshold=62.500000000000007 10.370306861995712 6.4212727942277708 0.28277909957741881 38.500000000000007 31.500000000000004
decision_type=2 8 2 2 2 2
left_child=2 -2 3 5 -5 -1
right_child=1 -3 -4 4 -6 -7
leaf_value=0.0088325292244450498 -0.001511104570695442 -0.05545228024117508 0.02110372009756047 0.019671719080514766 -0.001511104570695442 -0.001511104570695442
leaf_weight=15.106986250728367 2.4681422542780629 1.9783543348312376 5.039873555302619 18.988494753837589 9.993016950786112 40.208582771942019
leaf_count=81 28 37 24 99 70 361
internal_value=-0.000459978 -0.0255108 0.000786858 -0.000427827 0.00921881 -0.0015111
internal_weight=93.7835 4.4465 89.337 84.2971 28.9815 55.3156
internal_count=700 65 635 611 169 442
is_linear=0
shrinkage=0.05


Tree=57
num_leaves=7
num_cat=0
split_feature=14 1 1 10 8 1
split_gain=1.0881 2.37609 0.940582 1.14919 3.14445 0.937759
threshold=0.16025000000000003 0.34512795426852305 0.56303604773125748 0.28277909957741881 43.055555555555564 0.42076404139935669
decision_type=2 2 2 2 2 2
left_child=1 -1 3 5 -5 -2
right_child=2 -3 -4 4 -6 -7
leaf_value=0.00052552228231332696 0.001125327464463315 -0.055958410760444881 -0.016167520929527137 0.043885248368649814 0.0017399235364176817 -0.015062191813007214
leaf_weight=1.77399974875152 45.990289457142353 2.7577978735789657 7.7096482142806044 5.8028204143047359 18.649390157312155 11.107739632949231
leaf_count=22 303 49 70 26 101 129
internal_value=-0.000687947 -0.0245889 0.000525522 0.00210366 0.0117415 0.000525522
internal_weight=93.7917 4.5318 89.2599 81.5502 24.4522 57.098
internal_count=700 71 629 559 127 432
is_linear=0
shrinkage=0.05


Tree=58
num_leaves=8
num_cat=0
split_feature=5 1 12 3 11 9 5
split_gain=1.06366 1.06061 1.50886 1.44552 0.646636 0.311092 2.22045e-16
threshold=0.022474747474747477 0.5363818406553299 52.500000000000007 29.309397303925945 2.1262801610541859 30.500000000000004 0.077262973078423738
decision_type=2 2 2 10 10 2 2
left_child=4 2 3 -2 -1 -6 -3
right_child=1 6 -4 -5 5 -7 -8
leaf_value=-0.014726909351066332 0.007563589480663384 -0.014726909351066332 -0.014726909351066332 -0.014726909351066332 -0.021174649707191875 -0.052521079891329897 -0.014726909351066332
leaf_weight=4.7553554959595195 62.74009140394628 4.9685051068663579 8.3101722802966815 4.9959452617913476 1.4825522769242527 1.6980653908103702 4.5715186856687069
leaf_count=60 376 50 75 36 25 46 32
internal_value=-0.000635824 0.000987902 0.00295933 0.00544407 -0.018147 -0.0379099 -0.0147269
internal_weight=93.5222 85.5862 76.0462 67.736 7.93597 3.18062 9.54002
internal_count=700 569 487 412 131 71 82
is_linear=0
shrinkage=0.05


Tree=59
num_leaves=7
num_cat=0
split_feature=9 3 11 10 13 13
split_gain=1.05053 1.2301 0.77861 0.723223 2.11799 0.422576
threshold=62.500000000000007 10.370306861995712 0.49711982774774593 0.28277909957741881 37.500000000000007 31.500000000000004
decision_type=2 8 10 2 2 2
left_child=2 -2 -1 5 -5 -4
right_child=1 -3 3 4 -6 -7
leaf_value=0.020417805637679531 -0.0014174093011764389 -0.055205469543726696 0.0087946054827854978 0.018128524260584141 -0.0014174093011764389 -0.0014174093011764389
leaf_weight=4.6763020586222401 2.4602471496909848 1.8715347852557895 14.984441377222536 18.761111550033096 11.711815673857926 38.867335660383105
leaf_count=42 28 37 79 97 79 338
internal_value=-0.000611544 -0.0246564 0.000558747 -0.000542555 0.00642167 -0.00141741
internal_weight=93.3328 4.33178 89.001 84.3247 30.4729 53.8518
internal_count=700 65 635 593 176 417
is_linear=0
shrinkage=0.05


Tree=60
num_leaves=6
num_cat=0
split_feature=4 12 1 8 14
split_gain=1.00684 1.32365 1.77403 1.93102 0.659568
threshold=6.4212727942277708 52.500000000000007 0.56148278194598766 85.416666666666686 0.22083333333333335
decision_type=2 2 2 2 2
left_child=1 2 3 -1 -3
right_child=-2 4 -4 -5 -6
leaf_value=0.0062473809203460245 0.019774153963624013 -0.041254846882474203 -0.018636806747983747 -0.016170474328708634 -0.018636806747983747
leaf_weight=58.811303026974201 5.5793578997254363 3.223215392790733 6.8164511807262889 11.481197499670087 7.4461843706667423
leaf_count=355 27 51 62 130 75
internal_value=-0.00082158 -0.00213068 0.000153233 0.00258577 -0.0186368
internal_weight=93.3577 87.7784 77.109 70.2925 10.6694
internal_count=700 673 547 485 126
is_linear=0
shrinkage=0.05


Tree=61
num_leaves=8
num_cat=0
split_feature=5 14 8 9 1 12 1
split_gain=0.975609 2.33657 1.84061 1.66372 1.13099 2.59125 0.682723
threshold=0.063966175668303329 0.48300000000000004 85.416666666666686 24.500000000000004 0.28040687944488313 31.500000000000004 0.39338914379821888
decision_type=2 2 2 2 2 2 2
left_child=1 2 3 -1 5 -2 -4
right_child=4 -3 6 -5 -6 -7 -8
leaf_value=0.0038263093181421315 0.040598824281186691 0.0038263093181421315 -0.022413215331470535 -0.020272493467264327 0.0038263093181421315 0.0038263093181421315 -0.053452273929929808
leaf_weight=15.382548391819002 6.8817244470119467 5.5628619268536559 4.1884812843054524 13.358190247789024 36.177653063088655 8.4915127828717214 3.0702210143208504
leaf_count=102 30 44 61 139 211 41 72
internal_value=-0.000769203 -0.00646915 -0.013045 -0.0073632 0.00382631 0.0173881 -0.0355418
internal_weight=93.1132 41.5623 35.9994 28.7407 51.5509 15.3732 7.2587
internal_count=700 418 374 241 282 71 133
is_linear=0
shrinkage=0.05


Tree=62
num_leaves=7
num_cat=0
split_feature=9 3 11 10 13 13
split_gain=0.924671 1.18849 0.717169 0.609986 1.89782 0.212698
threshold=62.500000000000007 10.370306861995712 0.49711982774774593 0.28277909957741881 37.500000000000007 31.500000000000004
decision_type=2 8 10 2 2 2
left_child=2 -2 -1 5 -5 -4
right_child=1 -3 3 4 -6 -7
leaf_value=0.019382456422665513 -0.0010776169772773797 -0.055015735448989772 0.0078603493891333375 0.01722063200380948 -0.0010776169772773797 -0.0010776169772773797
leaf_weight=4.6690403688698998 2.4329461362212887 1.7601378997787831 14.956277657300232 18.751379013061527 11.624648354947565 38.605202034115791
leaf_count=42 28 37 79 97 79 338
internal_value=-0.000775971 -0.0237193 0.000309766 -0.000751157 0.00602853 -0.00107762
internal_weight=92.7996 4.19308 88.6065 83.9375 30.376 53.5615
internal_count=700 65 635 593 176 417
is_linear=0
shrinkage=0.05


Tree=63
num_leaves=7
num_cat=0
split_feature=4 10 13 5 2 7
split_gain=0.870616 1.2181 1.95064 1.49656 1.26033 1.39497
threshold=6.4212727942277708 0.28277909957741881 38.500000000000007 0.047913043478260878 5.4116833742491179 1677192.1675000002
decision_type=2 2 2 2 2 2
left_child=1 4 3 -3 -1 -6
right_child=-2 2 -4 -5 5 -7
leaf_value=-0.0064390672397654711 0.018194336197166847 -0.0064390672397654711 -0.0064390672397654711 0.018194336197166847 -0.0064390672397654711 -0.05373688504210871
leaf_weight=53.003171694464982 5.5647027119994155 5.8905434384942117 10.324066145345567 13.411950018256901 1.6640051212161768 2.9673706609755754
leaf_count=401 27 37 76 64 29 66
internal_value=-0.000980792 -0.0022036 0.00603593 0.0157308 -0.00643907 -0.032522
internal_weight=92.8258 87.2611 29.6266 19.3025 57.6345 4.63138
internal_count=700 673 177 101 496 95
is_linear=0
shrinkage=0.05


Tree=64
num_leaves=6
num_cat=0
split_feature=9 3 11 8 0
split_gain=0.827442 1.15075 0.692332 0.446606 0.314529
threshold=62.500000000000007 10.370306861995712 0.49711982774774593 23.611111111111114 0.5165254520765733
decision_type=2 8 10 2 2
left_child=2 -2 -1 -4 -5
right_child=1 -3 3 4 -6
leaf_value=0.018922282033899725 -0.00080301425368252757 -0.054775410438202436 0.015474693472900286 -0.00080301425368252757 0.010789690362638956
leaf_weight=4.6664026752114287 2.4196784216910592 1.6686438443139193 4.2151785716414443 73.184302916750312 6.364055097103118
leaf_count=42 28 37 20 543 30
internal_value=-0.000840417 -0.0228318 0.000176296 -0.000803014 -0.000803014
internal_weight=92.5183 4.08832 88.4299 83.7635 79.5484
internal_count=700 65 635 593 573
is_linear=0
shrinkage=0.05


Tree=65
num_leaves=8
num_cat=0
split_feature=5 1 12 3 11 1 10
split_gain=0.813586 0.869004 1.13241 1.2263 0.595295 0.319392 2.22045e-16
threshold=0.022474747474747477 0.5363818406553299 52.500000000000007 29.309397303925945 2.1262801610541859 0.39050056466966288 0.40812943531836537
decision_type=2 2 2 10 10 2 2
left_child=4 2 3 -2 -1 -6 -3
right_child=1 6 -4 -5 5 -7 -8
leaf_value=-0.013852564610842137 0.0063732070832773942 -0.013852564610842137 -0.013852564610842137 -0.013852564610842137 -0.019449358971801306 -0.052330619268389202 -0.013852564610842137
leaf_weight=4.6381578575819722 62.600957874208689 5.4725622627884132 8.0191000951454026 4.8963601086288682 1.408911678940058 1.552133062854409 3.8811183869838715
leaf_count=60 376 58 75 36 25 46 24
internal_value=-0.000880128 0.000523266 0.0023039 0.00442272 -0.0165536 -0.0366852 -0.0138526
internal_weight=92.4693 84.8701 75.5164 67.4973 7.5992 2.96104 9.35368
internal_count=700 569 487 412 131 71 82
is_linear=0
shrinkage=0.05


Tree=66
num_leaves=7
num_cat=0
split_feature=14 1 1 10 13 1
split_gain=0.787306 2.37742 0.650944 0.750769 1.3449 0.665065
threshold=0.16025000000000003 0.34460459767743729 0.56303604773125748 0.28277909957741881 38.500000000000007 0.42076404139935669
decision_type=2 2 2 2 2 2
left_child=1 -1 3 5 -5 -2
right_child=2 -3 -4 4 -6 -7
leaf_value=0.00017059356432108124 0.00017059356432108124 -0.055622298092263017 -0.014029763079706371 0.018048372707383391 0.00017059356432108124 -0.013203855366423285
leaf_weight=1.6409538406878699 45.610033152624965 2.5719099491834641 7.3927671685814849 16.819517977535728 7.5953058749437323 10.64931045938283
leaf_count=21 303 50 70 80 47 129
internal_value=-0.000839521 -0.0219553 0.000170594 0.00147188 0.00925199 0.000170594
internal_weight=92.2798 4.21286 88.0669 80.6742 24.4148 56.2593
internal_count=700 71 629 559 127 432
is_linear=0
shrinkage=0.05


Tree=67
num_leaves=8
num_cat=0
split_feature=9 1 13 14 12 5 10
split_gain=0.758711 0.693504 1.08777 2.38111 0.423668 0.177635 0.169219
threshold=62.500000000000007 0.56303604773125748 31.500000000000004 0.481375 34.500000000000007 0.063966175668303329 0.22198543666945428
decision_type=2 2 2 2 2 2 2
left_child=1 2 5 -4 -3 -1 -2
right_child=6 4 3 -5 -6 -7 -8
leaf_value=0.01032896402565958 -0.03616190078795422 -0.0072221309857058089 -0.0072221309857058089 0.01032896402565958 -0.022110093712260036 0.016238751701929201 -0.022110093712260036
leaf_weight=11.693944960832598 2.142523904331028 4.0463679842650881 48.459182092919946 7.686507996171712 3.4485276555642486 12.715259879827498 1.8543255953118203
leaf_count=65 44 30 391 49 43 57 21
internal_value=-0.000803727 0.000163434 0.00151696 -0.00231404 -0.0143842 0.010329 -0.0221101
internal_weight=92.0466 88.0498 80.5549 56.1457 7.4949 24.4092 3.99685
internal_count=700 635 562 440 73 122 65
is_linear=0
shrinkage=0.05


Tree=68
num_leaves=8
num_cat=0
split_feature=4 10 8 5 2 7 5
split_gain=0.714487 1.01766 1.74316 1.51296 1.12233 1.52955 0.572363
threshold=6.4212727942277708 0.28277909957741881 39.583333333333343 0.047913043478260878 5.4116833742491179 1564654.6975 0.081000546746856208
decision_type=2 2 2 2 2 2 2
left_child=1 4 -3 -4 6 -6 -1
right_child=-2 2 3 -5 5 -7 -8
leaf_value=-0.0057407946934617971 0.016677931333782443 0.016677931333782443 -0.0057407946934617971 0.0097365372534407232 -0.0057407946934617971 -0.053776944032648523 0.003743195479950548
leaf_weight=33.97531393636018 5.546674169600009 6.4707941114902523 5.6913809590041664 17.219113495200872 1.4923559622839082 2.8731418699026108 18.503441724926233
leaf_count=299 27 31 51 95 28 67 102
internal_value=-0.000716623 -0.00183557 0.0057199 -0.0018749 -0.00574079 -0.0310928 -0.00574079
internal_weight=91.7722 86.2255 29.3813 22.9105 56.8443 4.3655 52.4788
internal_count=700 673 177 146 496 95 401
is_linear=0
shrinkage=0.05


Tree=69
num_leaves=6
num_cat=0
split_feature=9 3 1 8 11
split_gain=0.666741 2.73499 0.558418 0.263715 0.0467383
threshold=58.500000000000007 11.602993376487239 0.17220541515145629 23.611111111111114 0.70980044627113548
decision_type=2 10 2 2 10
left_child=2 -2 -1 -4 -5
right_child=1 -3 3 4 -6
leaf_value=0.015908593539791193 0.00031174801649396433 -0.059529665948200555 0.013760554660971655 0.010321106077325346 0.00031174801649396433
leaf_weight=5.7388631775975218 2.9003399219363919 2.4034553617238998 4.1949298530817023 3.9495583642274132 72.41449758131057
leaf_count=29 33 45 20 35 538
internal_value=-0.000745776 -0.0179527 0.000311748 0.000311748 0.000311748
internal_weight=91.6016 5.3038 86.2978 80.559 76.3641
internal_count=700 78 622 593 573
is_linear=0
shrinkage=0.05


Tree=70
num_leaves=10
num_cat=0
split_feature=5 11 4 1 9 14 9 11 6
split_gain=0.653744 0.758949 0.705072 1.15306 1.15113 0.468063 0.326621 0.217464 0.147859
threshold=0.022474747474747477 2.1262801610541859 4.4354438374904932 0.29013760621345963 21.500000000000004 0.31704166666666672 30.500000000000004 2.3714282258779353 3.5000000000000004
decision_type=2 10 2 2 2 2 2 10 2
left_child=1 8 3 4 -2 -4 -3 -5 -1
right_child=2 6 5 7 -6 -7 -8 -9 -10
leaf_value=-0.014693333191499429 0.0092894294623546893 -0.018077492612358689 0.0092894294623546893 -0.0024780943857509595 -0.0024780943857509595 0.019824129956355338 -0.05227960001505632 -0.014609105208096142 -0.0024780943857509595
leaf_weight=2.4773299209773532 6.7581728771328953 1.3617979465052488 7.2807072550058392 41.812032639980316 9.6224805619567615 10.543871201574801 1.4321225988678632 8.199578511528669 2.0558940898627043
leaf_count=40 32 25 40 273 58 49 46 117 20
internal_value=-0.000786389 -0.0151113 0.000459922 -0.00191057 0.00928943 0.00928943 -0.035609 -0.00247809 -0.00247809
internal_weight=91.544 7.32714 84.2168 66.3923 16.3807 17.8246 2.79392 50.0116 4.53322
internal_count=700 131 569 480 90 89 71 390 60
is_linear=0
shrinkage=0.05


Tree=71
num_leaves=7
num_cat=0
split_feature=14 1 1 10 12 1
split_gain=0.637861 2.29517 0.526215 0.541304 1.16249 0.525741
threshold=0.16025000000000003 0.34460459767743729 0.56303604773125748 0.28277909957741881 39.500000000000007 0.42076404139935669
decision_type=2 2 2 2 2 2
left_child=1 -1 3 5 -5 -2
right_child=2 -3 -4 4 -6 -7
leaf_value=0.0001332168799292953 0.0001332168799292953 -0.055395055586820556 -0.012791039880898337 0.015933608472364604 0.0001332168799292953 -0.011815307543152633
leaf_weight=1.6169597189873446 45.32302618958056 2.4018963295966387 7.2240721527487031 17.497707985341552 6.905544437468051 10.354267424903808
leaf_count=21 303 50 70 84 43 129
internal_value=-0.000763333 -0.0202398 0.000133217 0.00129912 0.00787368 0.000133217
internal_weight=91.3235 4.01886 87.3046 80.0805 24.4033 55.6773
internal_count=700 71 629 559 127 432
is_linear=0
shrinkage=0.05


Tree=72
num_leaves=8
num_cat=0
split_feature=5 14 8 9 1 12 1
split_gain=0.61525 1.9373 1.57018 1.37221 0.961238 2.28811 0.687379
threshold=0.063966175668303329 0.48300000000000004 85.416666666666686 24.500000000000004 0.28040687944488313 31.500000000000004 0.39338914379821888
decision_type=2 2 2 2 2 2 2
left_child=1 2 3 -1 5 -2 -4
right_child=4 -3 6 -5 -6 -7 -8
leaf_value=0.0029155540844489404 0.037538538961299911 0.0029155540844489404 -0.020476091168176495 -0.01878467751311547 0.0029155540844489404 0.0029155540844489404 -0.053231888660670447
leaf_weight=15.236316485330464 6.7765330523252478 5.5020062774419776 3.9584780931472769 12.789694375824181 35.701706301420927 8.4587221890687925 2.6900140615180135
leaf_count=102 30 44 61 139 211 41 72
internal_value=-0.000733449 -0.00535976 -0.0118839 -0.00670165 0.00291555 0.0154747 -0.0337293
internal_weight=91.1135 40.1765 34.6745 28.026 50.937 15.2353 6.64849
internal_count=700 418 374 241 282 71 133
is_linear=0
shrinkage=0.05


Tree=73
num_leaves=5
num_cat=0
split_feature=9 3 1 8
split_gain=0.558033 2.63404 0.462155 0.228958
threshold=58.500000000000007 10.370306861995712 0.17220541515145629 23.611111111111114
decision_type=2 8 2 2
left_child=2 -2 -1 -4
right_child=1 -3 3 -5
leaf_value=0.014443076206200518 0.00023221758571063923 -0.05942732786975894 0.012747350749088299 0.00023221758571063923
leaf_weight=5.7212032303214064 2.867435995489358 2.2655688710510731 4.1822638958692542 75.779759076423943
leaf_count=29 33 45 20 573
internal_value=-0.000727086 -0.0167404 0.000232218 0.000232218
internal_weight=90.8162 5.133 85.6832 79.962
internal_count=700 78 622 593
is_linear=0
shrinkage=0.05


Tree=74
num_leaves=7
num_cat=0
split_feature=1 5 8 10 5 10
split_gain=0.537724 1.05292 0.484787 3.66778 0.189428 0.318424
threshold=0.56303604773125748 0.068532289628180046 35.416666666666671 0.24980566685393654 0.060373756074982653 0.28758471632111465
decision_type=2 2 2 2 2 2
left_child=2 -2 3 -1 -4 -6
right_child=1 -3 4 -5 5 -7
leaf_value=0.00040783917405923372 -0.03779585085067217 0.00040783917405923372 -0.0043800514852746055 0.039797101829672193 0.00040783917405923372 0.0084672648309779257
leaf_weight=5.430006565526126 2.8065263703465453 4.6061825379729271 29.657547182403505 6.6911469623446465 29.136774532496929 12.415884062647818
leaf_count=33 46 32 328 30 171 60
internal_value=-0.000740116 -0.0136451 0.000407839 0.0104072 0.000407839 0.000407839
internal_weight=90.7441 7.41271 83.3314 12.1212 71.2102 41.5527
internal_count=700 78 622 63 559 231
is_linear=0
shrinkage=0.05


Tree=75
num_leaves=7
num_cat=0
split_feature=14 1 4 10 8 1
split_gain=0.537462 2.21857 0.435254 0.450168 1.31014 0.504428
threshold=0.16025000000000003 0.34460459767743729 6.4212727942277708 0.28277909957741881 39.583333333333343 0.42076404139935669
decision_type=2 2 2 2 2 2
left_child=1 -1 3 5 -5 -2
right_child=2 -3 -4 4 -6 -7
leaf_value=-1.1340636843558565e-05 -1.1340636843558565e-05 -0.055250235998227565 0.014032526094514067 0.014032526094514067 -1.1340636843558565e-05 -0.015111068705484572
leaf_weight=1.6021532127633684 41.525700319558382 2.2777504581026733 5.5170763656496993 6.2636162266135242 22.17732304893434 11.243764315731822
leaf_count=21 285 50 27 30 138 149
internal_value=-0.000825847 -0.0190325 -1.13406e-05 -1.13406e-05 0.00648247 -1.13406e-05
internal_weight=90.6074 3.8799 86.7275 81.2104 28.4409 52.7695
internal_count=700 71 629 602 168 434
is_linear=0
shrinkage=0.05


Tree=76
num_leaves=8
num_cat=0
split_feature=5 11 4 10 10 9 6
split_gain=0.483427 0.72763 0.47603 0.9725 0.332998 0.331249 0.13012
threshold=0.022474747474747477 2.1262801610541859 4.4354438374904932 0.23601642104966195 0.28277909957741881 30.500000000000004 3.5000000000000004
decision_type=2 10 2 2 2 2 2
left_child=1 6 4 -4 -2 -3 -1
right_child=2 5 3 -5 -6 -7 -8
leaf_value=-0.012687665550565259 -0.00096812343046760469 -0.016505435361607031 -0.00096812343046760469 0.017578765308900821 0.0051963931647855703 -0.0521267585901391 -0.00096812343046760469
leaf_weight=2.3684435281902543 42.825974263250828 1.3079517642036083 6.830677509307864 10.919398128986357 22.805295808240771 1.3026206800714133 2.0376738272607327
leaf_count=40 344 25 36 53 136 46 20
internal_value=-0.000757306 -0.0133618 0.000303382 0.00767137 -0.000968123 -0.0342797 -0.000968123
internal_weight=90.398 7.01669 83.3813 17.7501 65.6313 2.61057 4.40612
internal_count=700 131 569 89 480 71 60
is_linear=0
shrinkage=0.05


Tree=77
num_leaves=6
num_cat=0
split_feature=1 5 3 1 5
split_gain=0.483883 0.97973 0.378319 0.341327 0.293545
threshold=0.56303604773125748 0.068532289628180046 -36.71620076522138 0.17220541515145629 0.022474747474747477
decision_type=2 2 10 2 2
left_child=2 -2 -1 -4 -5
right_child=1 -3 3 4 -6
leaf_value=0.015274787369041313 -0.037020776652071326 0.00024982575173886795 0.013247793354399219 -0.012659575347795353 0.00024982575173886795
leaf_weight=4.1895897835493079 2.7109243054874232 4.6112652234733105 5.3483594581484786 5.8366487398743621 67.635318785905838
leaf_count=22 46 32 28 112 460
internal_value=-0.000837036 -0.0131585 0.000249826 0.000249826 0.000249826
internal_weight=90.3321 7.32219 83.0099 78.8203 73.472
internal_count=700 78 622 600 572
is_linear=0
shrinkage=0.05


Tree=78
num_leaves=6
num_cat=0
split_feature=9 3 1 12 9
split_gain=0.471168 2.50655 0.376135 0.166734 0.56978
threshold=58.500000000000007 10.370306861995712 0.17220541515145629 31.500000000000004 12.500000000000002
decision_type=2 8 2 2 2
left_child=2 -2 -1 4 -4
right_child=1 -3 3 -5 -6
leaf_value=0.012849961244875441 4.7296095904613823e-05 -0.05911813236056547 0.012849961244875441 4.7296095904613823e-05 4.7296095904613823e-05
leaf_weight=5.7369766831398001 2.8475586250424376 2.1463236114941537 10.992161087691782 45.228079858236015 23.269636537879705
leaf_count=29 33 45 53 407 133
internal_value=-0.000827357 -0.0157544 4.72961e-05 4.72961e-05 0.00380855
internal_weight=90.2207 4.99388 85.2269 79.4899 34.2618
internal_count=700 78 622 593 186
is_linear=0
shrinkage=0.05


Tree=79
num_leaves=7
num_cat=0
split_feature=14 1 1 9 8 5
split_gain=0.452993 2.13943 0.365496 0.351418 1.0743 0.0210404
threshold=0.16025000000000003 0.34460459767743729 0.56303604773125748 24.500000000000004 35.416666666666671 0.063966175668303329
decision_type=2 2 2 2 2 2
left_child=1 -1 3 4 -2 -5
right_child=2 -3 -4 5 -6 -7
leaf_value=-0.0001410136875623614 0.023078961095542874 -0.055051217378006057 -0.011112740372763353 -0.0001410136875623614 0.0010547467352926558 0.0010547467352926558
leaf_weight=1.5932377716526382 6.6605793461203566 2.1658521527424455 6.9775446476414791 16.87195290112868 32.819359282031655 23.070830415934324
leaf_count=21 32 50 70 207 192 128
internal_value=-0.000880268 -0.0178716 -0.000141014 0.000822888 0.00477041 -0.000141014
internal_weight=90.1594 3.75909 86.4003 79.4227 39.4799 39.9428
internal_count=700 71 629 559 224 335
is_linear=0
shrinkage=0.05


Tree=80
num_leaves=6
num_cat=0
split_feature=0 9 3 14 5
split_gain=0.444928 0.66259 2.07919 0.390252 0.848277
threshold=0.57991597028469455 58.500000000000007 10.370306861995712 0.50000000000000022 0.10101268412438626
decision_type=2 2 8 2 2
left_child=1 3 -3 4 -1
right_child=-2 2 -4 -5 -6
leaf_value=-0.00060537390287127794 0.015811898346480249 -0.00060537390287127794 -0.058770973837861978 0.009607175422145238 0.009607175422145238
leaf_weight=57.913411852903664 3.8181401640176764 2.4161575417965642 2.0527713070623577 9.3544074520468694 14.483806300908325
leaf_count=472 18 31 45 56 78
internal_value=-0.000890537 -0.00163018 -0.0203773 -0.000605374 -0.000605374
internal_weight=90.0387 86.2206 4.46893 81.7516 72.3972
internal_count=700 682 76 606 550
is_linear=0
shrinkage=0.05


Tree=81
num_leaves=6
num_cat=0
split_feature=0 9 3 11 10
split_gain=0.407096 0.581812 2.00235 0.385897 0.285544
threshold=0.57991597028469455 58.500000000000007 10.370306861995712 0.49711982774774593 0.28277909957741881
decision_type=2 2 8 10 2
left_child=1 3 -3 -1 -5
right_child=-2 2 -4 4 -6
leaf_value=0.014338072061043814 0.0149973489137997 -0.00072381711151454421 -0.058420914470560276 -0.00072381711151454421 0.0044631422530737796
leaf_weight=4.2525774016976348 3.8240807726979247 2.4152883952483526 1.9640616816468535 49.039245555177331 28.499660024419427
leaf_count=38 18 31 45 399 169
internal_value=-0.000966069 -0.00167449 -0.0194299 -0.000723817 -0.000723817
internal_weight=89.9949 86.1708 4.37935 81.7915 77.5389
internal_count=700 682 76 606 568
is_linear=0
shrinkage=0.05


Tree=82
num_leaves=6
num_cat=0
split_feature=1 2 12 3 12
split_gain=0.400863 0.565352 0.815705 1.02953 0.265872
threshold=0.56303604773125748 5.0882576942732882 52.500000000000007 29.309397303925945 34.500000000000007
decision_type=2 2 2 10 2
left_child=1 2 3 -1 -2
right_child=4 -3 -4 -5 -6
leaf_value=0.0045680162053112336 -0.012336540102455822 -0.012336540102455822 -0.012336540102455822 -0.012336540102455822 -0.026669766921920503
leaf_weight=64.913645917549729 3.9637955790385595 4.1840785155072799 8.6679447251372022 4.9999551009386769 3.2353700390085578
leaf_count=398 32 92 87 45 46
internal_value=-0.00101995 -3.56075e-05 0.000980958 0.0027801 -0.0123365
internal_weight=89.9648 82.7656 78.5815 69.9136 7.19917
internal_count=700 622 530 443 78
is_linear=0
shrinkage=0.05


Tree=83
num_leaves=8
num_cat=0
split_feature=5 14 8 9 1 12 1
split_gain=0.375983 1.60029 1.35089 1.13406 0.85286 2.13322 0.680009
threshold=0.063966175668303329 0.48300000000000004 85.416666666666686 24.500000000000004 0.28040687944488313 31.500000000000004 0.39338914379821888
decision_type=2 2 2 2 2 2 2
left_child=1 2 3 -1 5 -2 -4
right_child=4 -3 6 -5 -6 -7 -8
leaf_value=0.0018579226454003798 0.035278004634627477 0.0018579226454003798 -0.019007172225041773 -0.017597487838810232 0.0018579226454003798 0.0018579226454003798 -0.052974964552223329
leaf_weight=15.160688119009139 6.6838446259498587 5.4561213552951804 3.8018048815429202 12.399107191711662 35.49316873960197 8.4305975027382356 2.4057524958625436
leaf_count=102 30 44 61 139 211 41 72
internal_value=-0.000989856 -0.00466417 -0.0110993 -0.00635303 0.00185792 0.0137351 -0.0321715
internal_weight=89.8311 39.2235 33.7674 27.5598 50.6076 15.1144 6.20756
internal_count=700 418 374 241 282 71 133
is_linear=0
shrinkage=0.05


Tree=84
num_leaves=6
num_cat=0
split_feature=0 9 3 11 10
split_gain=0.358962 0.500756 1.93061 0.358981 0.281798
threshold=0.57991597028469455 58.500000000000007 10.370306861995712 0.49711982774774593 0.28277909957741881
decision_type=2 2 8 10 2
left_child=1 3 -3 -1 -5
right_child=-2 2 -4 4 -6
leaf_value=0.013797401597617285 0.014030294173896552 -0.0007559324892313661 -0.058243847836214141 -0.0007559324892313661 0.0043949392249549154
leaf_weight=4.2372711058706036 3.8227569907903662 2.3953783595934501 1.8590177963487802 48.814077889546752 28.409195216372609
leaf_count=38 18 31 45 399 169
internal_value=-0.00096073 -0.00162931 -0.0183521 -0.000755932 -0.000755932
internal_weight=89.5377 85.7149 4.2544 81.4605 77.2233
internal_count=700 682 76 606 568
is_linear=0
shrinkage=0.05


Tree=85
num_leaves=7
num_cat=0
split_feature=14 1 4 10 5 1
split_gain=0.356962 2.07151 0.275433 0.386889 1.09639 0.340045
threshold=0.16025000000000003 0.34460459767743729 6.4212727942277708 0.28277909957741881 0.040643551578766243 0.42076404139935669
decision_type=2 2 2 2 2 2
left_child=1 -1 3 5 -5 -2
right_child=2 -3 -4 4 -6 -7
leaf_value=-0.00036427933148466905 -0.00036427933148466905 -0.05492825652974509 0.010842118271910707 -0.00036427933148466905 0.010842118271910707 -0.013506760283892128
leaf_weight=1.5710901534184807 41.249734221026301 2.0518473675474524 5.483072690665721 5.2623809697106507 23.044248841702938 10.845806717872618
leaf_count=21 285 50 27 42 126 149
internal_value=-0.0010128 -0.0163865 -0.000364279 -0.000364279 0.00562141 -0.000364279
internal_weight=89.5082 3.62294 85.8852 80.4022 28.3066 52.0955
internal_count=700 71 629 602 168 434
is_linear=0
shrinkage=0.05


Tree=86
num_leaves=6
num_cat=0
split_feature=1 2 12 3 12
split_gain=0.345737 0.478055 0.705788 0.913888 0.254699
threshold=0.56303604773125748 5.0882576942732882 52.500000000000007 29.309397303925945 34.500000000000007
decision_type=2 2 2 10 2
left_child=1 2 3 -1 -2
right_child=4 -3 -4 -5 -6
leaf_value=0.0041565993405995464 -0.011629612059630819 -0.011629612059630819 -0.011629612059630819 -0.011629612059630819 -0.025838375974524187
leaf_weight=64.772858038544655 3.9350981805473557 4.0567152500152579 8.5406149784103018 4.917321632616221 3.1539536768104881
leaf_count=398 32 92 87 45 46
internal_value=-0.00103454 -0.000121777 0.000803193 0.00247133 -0.0116296
internal_weight=89.3766 82.2875 78.2308 69.6902 7.08905
internal_count=700 622 530 443 78
is_linear=0
shrinkage=0.05


Tree=87
num_leaves=6
num_cat=0
split_feature=0 9 2 14 5
split_gain=0.30866 0.430214 1.86897 0.331604 0.744388
threshold=0.57991597028469455 58.500000000000007 2.3544491057818453 0.50000000000000022 0.10101268412438626
decision_type=2 2 2 2 2
left_child=1 3 -3 4 -1
right_child=-2 2 -4 -5 -6
leaf_value=-0.00082221428396609363 0.012897056953322897 -0.00082221428396609363 -0.054020297009889064 0.0085926079390220133 0.0085926079390220133
leaf_weight=57.457511923275888 3.823009990155696 2.1046295650303355 2.0504823052324355 9.3526676651090366 14.460283689200876
leaf_count=472 18 19 57 56 78
internal_value=-0.00100249 -0.00162453 -0.0173171 -0.000822214 -0.000822214
internal_weight=89.2486 85.4256 4.15511 81.2705 71.9178
internal_count=700 682 76 606 550
is_linear=0
shrinkage=0.05


Tree=88
num_leaves=6
num_cat=0
split_feature=1 12 12 5 14
split_gain=0.294816 0.446533 0.328853 0.531001 0.564366
threshold=0.56303604773125748 34.500000000000007 52.500000000000007 0.11580683538827603 0.50000000000000022
decision_type=2 2 2 2 2
left_child=2 -2 3 4 -1
right_child=1 -3 -4 -5 -6
leaf_value=-0.00021837468968111701 -0.00021837468968111701 -0.0250981135446363 -0.0092220882217907228 0.014930312073140868 0.013307758883404837
leaf_weight=59.252306737471372 3.9074588548392049 3.0955980839207768 9.027419842546804 6.178293637931346 7.7241349685937157
leaf_count=435 32 46 111 28 48
internal_value=-0.00105755 -0.0109055 -0.000218375 0.000892699 -0.000218375
internal_weight=89.1852 7.00306 82.1822 73.1547 66.9764
internal_count=700 78 622 511 483
is_linear=0
shrinkage=0.05


Tree=89
num_leaves=7
num_cat=0
split_feature=5 11 9 4 14 5
split_gain=0.289473 0.690771 0.335631 0.26857 0.506957 0.332048
threshold=0.022474747474747477 2.1262801610541859 30.500000000000004 6.4212727942277708 0.50000000000000022 0.11580683538827603
decision_type=2 10 2 2 2 2
left_child=1 -1 -3 4 5 -2
right_child=3 2 -4 -5 -6 -7
leaf_value=-0.00026207245532724365 -0.00026207245532724365 -0.014589887592497824 -0.05200396062224151 0.010898292720123636 0.010898292720123636 0.010898292720123636
leaf_weight=4.2360899141058317 61.809616605751216 1.2461811238899829 1.1549691862892357 5.3906539529561988 8.8324568271636945 6.4308869838714591
leaf_count=60 461 25 46 26 48 34
internal_value=-0.0010706 -0.0111161 -0.0325863 -0.000262072 -0.000262072 -0.000262072
internal_weight=89.1009 6.63724 2.40115 82.4636 77.073 68.2405
internal_count=700 131 71 569 543 495
is_linear=0
shrinkage=0.05


Tree=90
num_leaves=6
num_cat=0
split_feature=0 9 3 11 10
split_gain=0.272368 0.366038 1.8395 0.333543 0.226954
threshold=0.57991597028469455 58.500000000000007 10.370306861995712 0.49711982774774593 0.28277909957741881
decision_type=2 2 8 10 2
left_child=1 3 -3 -1 -5
right_child=-2 2 -4 4 -6
leaf_value=0.011904195684780204 0.011904195684780204 -0.0009985323037355184 -0.057898214354819899 -0.0009985323037355184 0.0036520001957614269
leaf_weight=4.2436740584671488 3.827074207365512 2.336178444325923 1.7171902398113159 48.560414071194828 28.375787608325481
leaf_count=38 18 31 45 399 169
internal_value=-0.00114479 -0.0017307 -0.0163944 -0.000998532 -0.000998532
internal_weight=89.0603 85.2332 4.05337 81.1799 76.9362
internal_count=700 682 76 606 568
is_linear=0
shrinkage=0.05


Tree=91
num_leaves=6
num_cat=0
split_feature=1 5 3 1 5
split_gain=0.268892 0.859166 0.28005 0.238395 0.161682
threshold=0.56303604773125748 0.068532289628180046 -36.71620076522138 0.17220541515145629 0.022474747474747477
decision_type=2 2 10 2 2
left_child=2 -2 -1 -4 -5
right_child=1 -3 3 4 -6
leaf_value=0.012605720123907288 -0.034686971496134679 -0.00037418630772984777 0.010540158094036777 -0.010566674225176155 -0.00037418630772984777
leaf_weight=4.1555895805358878 2.4437196694780132 4.5155393816530704 5.316649265587329 5.5532967727631322 67.034013337222859
leaf_count=22 46 32 28 112 460
internal_value=-0.00117445 -0.0106107 -0.000374186 -0.000374186 -0.000374186
internal_weight=89.0188 6.95926 82.0595 77.904 72.5873
internal_count=700 78 622 600 572
is_linear=0
shrinkage=0.05


Tree=92
num_leaves=7
num_cat=0
split_feature=14 1 4 10 5 1
split_gain=0.267675 1.99079 0.193114 0.34093 0.951119 0.255996
threshold=0.16025000000000003 0.34460459767743729 6.4212727942277708 0.28277909957741881 0.040643551578766243 0.42076404139935669
decision_type=2 2 2 2 2 2
left_child=1 -1 3 5 -5 -2
right_child=2 -3 -4 4 -6 -7
leaf_value=-0.0005881760413020946 -0.0005881760413020946 -0.054758691346883839 0.0088001852506233384 -0.0005881760413020946 0.0088001852506233384 -0.012444685393977931
leaf_weight=1.5481572235003107 41.135875433683395 1.933395078172907 5.4773990660905829 5.2011320088058737 23.022973770275712 10.588967276737092
leaf_count=21 285 50 27 42 126 149
internal_value=-0.00114203 -0.0147318 -0.000588176 -0.000588176 0.00501275 -0.000588176
internal_weight=88.9079 3.48155 85.4263 79.9489 28.2241 51.7248
internal_count=700 71 629 602 168 434
is_linear=0
shrinkage=0.05


Tree=93
num_leaves=6
num_cat=0
split_feature=1 12 12 8 13
split_gain=0.246361 0.408316 0.27679 0.435929 0.351972
threshold=0.56303604773125748 34.500000000000007 52.500000000000007 35.416666666666671 31.500000000000004
decision_type=2 2 2 2 2
left_child=2 -2 3 -1 -5
right_child=1 -3 -4 4 -6
leaf_value=0.0098739308130494849 -0.00037292134817432619 -0.024078581370207353 -0.0086907633058319438 0.0064210596584019968 -0.00037292134817432619
leaf_weight=11.096838032826779 3.8876820839941493 3.0047395725268871 8.9128733812831324 19.611707379110157 42.257971885614097
leaf_count=57 32 46 111 107 347
internal_value=-0.00113714 -0.0102158 -0.000372921 0.000643105 -0.000372921
internal_weight=88.7718 6.89242 81.8794 72.9665 61.8697
internal_count=700 78 622 511 454
is_linear=0
shrinkage=0.05


Tree=94
num_leaves=6
num_cat=0
split_feature=0 9 2 11 10
split_gain=0.232967 0.312198 1.77037 0.295666 0.198029
threshold=0.57991597028469455 58.500000000000007 2.3544491057818453 0.49711982774774593 0.28277909957741881
decision_type=2 2 2 10 2
left_child=1 3 -3 -1 -5
right_child=-2 2 -4 4 -6
leaf_value=0.010897538128747879 0.010897538128747879 -0.001050298450891732 -0.053761543322964227 -0.001050298450891732 0.0033029689585023086
leaf_weight=4.2614601217210284 3.8224433660507193 2.0715790987014766 1.8875851968768982 48.339422431774437 28.31295501627028
leaf_count=38 18 19 57 399 169
internal_value=-0.00117728 -0.0017211 -0.0154302 -0.0010503 -0.0010503
internal_weight=88.6954 84.873 3.95916 80.9138 76.6524
internal_count=700 682 76 606 568
is_linear=0
shrinkage=0.05


Tree=95
num_leaves=5
num_cat=0
split_feature=10 1 12 1
split_gain=0.223364 0.664972 0.49775 0.826287
threshold=0.064801282424614207 0.17220541515145629 52.500000000000007 0.56148278194598766
decision_type=2 2 2 2
left_child=-1 -2 3 -3
right_child=1 2 -4 -5
leaf_value=-0.011522100618028192 0.018256539198854279 0.0015252520404104718 -0.011522100618028192 -0.011522100618028192
leaf_weight=4.9437356330454341 4.4348149746656409 64.92021460365504 8.3634540417697263 5.9740449786186209
leaf_count=58 21 448 111 62
internal_value=-0.00119482 -0.000584781 -0.00163903 -0.000263755
internal_weight=88.6363 83.6925 79.2577 70.8943
internal_count=700 642 621 510
is_linear=0
shrinkage=0.05


Tree=96
num_leaves=8
num_cat=0
split_feature=5 11 10 4 14 5 6
split_gain=0.212457 0.636943 0.368152 0.188808 0.448497 0.302775 0.0587952
threshold=0.022474747474747477 2.1262801610541859 0.11638879851177565 6.4212727942277708 0.50000000000000022 0.11580683538827603 3.5000000000000004
decision_type=2 10 2 2 2 2 2
left_child=1 6 -3 4 5 -2 -1
right_child=3 2 -4 -5 -6 -7 -8
leaf_value=-0.0092400482277019188 -0.00048607393009666278 -0.054494352418351655 -0.013860651734906471 0.00887987705742296 0.00887987705742296 0.00887987705742296 -0.00048607393009666278
leaf_weight=2.1918758582323781 61.471867023268715 0.97839946299791369 1.2955819342751054 5.3809202611446372 8.8163485154509527 6.4123224020004264 1.9877436226233838
leaf_count=40 461 27 44 26 48 34 20
internal_value=-0.00117287 -0.009908 -0.0313436 -0.000486074 -0.000486074 -0.000486074 -0.000486074
internal_weight=88.5351 6.4536 2.27398 82.0815 76.7005 67.8842 4.17962
internal_count=700 131 71 569 543 495 60
is_linear=0
shrinkage=0.05


Tree=97
num_leaves=7
num_cat=0
split_feature=14 1 1 13 14 10
split_gain=0.197865 1.9097 0.152323 0.217226 0.554833 0.0680628
threshold=0.16025000000000003 0.34460459767743729 0.56303604773125748 31.500000000000004 0.481375 0.3086939626935627
decision_type=2 2 2 2 2 2
left_child=1 -1 3 5 -5 -2
right_child=2 -3 -4 4 -6 -7
leaf_value=-0.00073943702202884914 0.0040939608463078534 -0.054560485610425064 -0.0080411949704458138 -0.00073943702202884914 0.0040939608463078534 0.0093272873825421092
leaf_weight=1.5285415723919862 18.294925431720916 1.8256655130535362 6.5895520914345971 45.880845018662512 8.1404593996703607 6.2128949388861647
leaf_count=21 101 50 70 374 55 29
internal_value=-0.00120882 -0.0131203 -0.000739437 -0.00012673 -0.000739437 0.00409396
internal_weight=88.4729 3.35421 85.1187 78.5291 54.0213 24.5078
internal_count=700 71 629 559 429 130
is_linear=0
shrinkage=0.05


Tree=98
num_leaves=8
num_cat=0
split_feature=0 10 13 2 2 13 5
split_gain=0.19526 0.289847 1.48156 0.69558 1.02805 0.518072 0.0565128
threshold=0.57991597028469455 0.28277909957741881 37.500000000000007 5.4116833742491179 6.8976356293017531 31.500000000000004 0.052478580171358639
decision_type=2 2 2 2 2 2 2
left_child=1 3 6 5 -5 -1 -3
right_child=-2 2 -4 4 -6 -7 -8
leaf_value=0.0059255006820229834 0.0098629761072890169 0.0059255006820229834 -0.0038187280993584125 -0.0038187280993584125 -0.053214365544607879 -0.0038187280993584125 0.0098629761072890169
leaf_weight=14.903892636299132 3.8165055885910979 4.9238287862390342 11.622830912470816 1.8128312469925725 1.7660679486580191 36.982922554947436 12.531767603009937
leaf_count=81 18 33 85 42 53 327 61
